{"learner":{"attributes":{"scikit_learn":"{\"_estimator_type\": \"classifier\"}"},"feature_names":[],"feature_types":[],"gradient_booster":{"model":{"gbtree_model_param":{"num_parallel_tree":"1","num_trees":"50"},"iteration_indptr":[0,1,2,3,4,5,6,7,8,9,10,11,12,13,14,15,16,17,18,19,20,21,22,23,24,25,26,27,28,29,30,31,32,33,34,35,36,37,38,39,40,41,42,43,44,45,46,47,48,49,50],"tree_info":[0,0,0,0,0,0,0,0,0,0,0,0,0,0,0,0,0,0,0,0,0,0,0,0,0,0,0,0,0,0,0,0,0,0,0,0,0,0,0,0,0,0,0,0,0,0,0,0,0,0],"trees":[{"base_weights":[-1.0491086E0,5.323152E0,-1.1179794E0,-7.530378E-1,7.901344E0,-1.1331086E0,4.077546E0,5.477887E0,-3.39007E-1,8.011666E0,-4.1946507E-1,-1.1372051E0,4.8364224E0,-7.988944E-1,7.4087296E0,1.9824818E-1,1.9648489E0,3.06881E0,2.4150271E0,-2.376501E-1,1.1033056E-1,-1.1399857E0,-2.5333902E-1,-8.778448E-1,2.2100878E0,-3.3367717E-1,1.420544E0,8.416308E-2,7.713461E0,1.4639966E0,-1.7785878E-1,-3.420397E-1,-7.9098976E-1,-1.1087453E0,2.138005E0,-3.3764113E-2,-2.937605E-1,-1.9333582E-1,2.5442523E-1,7.8133616E0,3.985199E-1,-3.2031432E-1,2.8276762E-1,8.797287E-2,-3.3870658E-1,2.3692014E0,8.67516E-1],"categories":[],"categories_nodes":[],"categories_segments":[],"categories_sizes":[],"default_left":[0,0,0,0,0,0,0,0,0,0,0,0,0,0,0,0,0,0,0,0,0,0,0,0,0,0,0,0,0,0,0,0,0,0,0,0,0,0,0,0,0,0,0,0,0,0,0],"id":0,"left_children":[1,3,5,7,9,11,13,15,-1,17,19,21,23,25,27,-1,-1,29,-1,-1,-1,31,33,35,-1,-1,-1,37,39,-1,-1,-1,41,43,-1,-1,-1,-1,-1,45,-1,-1,-1,-1,-1,-1,-1],"loss_changes":[1.5201023E4,5.80821E3,2.6971523E3,2.6751804E2,2.4215137E2,8.407461E2,1.6250737E3,2.9317963E1,0E0,2.4064453E1,1.568839E0,8.360156E1,3.479156E2,7.698695E1,1.3175E2,0E0,0E0,2.6746376E1,0E0,0E0,0E0,8.4375E-1,6.917855E2,5.2127266E-1,0E0,0E0,0E0,2.428054E0,2.5939453E1,0E0,0E0,0E0,9.427335E0,3.1153793E0,0E0,0E0,0E0,0E0,0E0,2.4853516E-1,0E0,0E0,0E0,0E0,0E0,0E0,0E0],"parents":[2147483647,0,0,1,1,2,2,3,3,4,4,5,5,6,6,7,7,9,9,10,10,11,11,12,12,13,13,14,14,17,17,21,21,22,22,23,23,27,27,28,28,32,32,33,33,39,39],"right_children":[2,4,6,8,10,12,14,16,-1,18,20,22,24,26,28,-1,-1,30,-1,-1,-1,32,34,36,-1,-1,-1,38,40,-1,-1,-1,42,44,-1,-1,-1,-1,-1,46,-1,-1,-1,-1,-1,-1,-1],"split_conditions":[6.666667E-1,9.0198434E-4,1.5873017E-2,7.352941E-3,3.7037037E-2,8.3402835E-4,8.241759E-3,1.0989011E-3,-3.39007E-1,6.455778E-4,1.7456358E-2,1.14613185E-2,1.0683761E-3,1.0683761E-3,1.34E2,1.9824818E-1,1.9648489E0,3.2967033E-3,2.4150271E0,-2.376501E-1,1.1033056E-1,1.0256411E-2,1.0683761E-3,6.1068702E-2,2.2100878E0,-3.3367717E-1,1.420544E0,7.712766E-2,5.6834327E-4,1.4639966E0,-1.7785878E-1,-3.420397E-1,5.4054055E-3,1.5544041E-2,2.138005E0,-3.3764113E-2,-2.937605E-1,-1.9333582E-1,2.5442523E-1,1.6420361E-3,3.985199E-1,-3.2031432E-1,2.8276762E-1,8.797287E-2,-3.3870658E-1,2.3692014E0,8.67516E-1],"split_indices":[94,82,77,19,27,64,71,66,0,71,15,77,68,68,96,0,0,1,0,0,0,77,68,9,0,0,0,1,92,0,0,0,82,12,0,0,0,0,0,78,0,0,0,0,0,0,0],"split_type":[0,0,0,0,0,0,0,0,0,0,0,0,0,0,0,0,0,0,0,0,0,0,0,0,0,0,0,0,0,0,0,0,0,0,0,0,0,0,0,0,0,0,0,0,0,0,0],"sum_hessian":[3.4622758E4,3.693827E2,3.4253375E4,1.1025218E2,2.591305E2,3.41547E4,9.867516E1,5.518019E0,1.0473417E2,2.5577641E2,3.35409E0,3.4132086E4,2.2613058E1,4.0357277E1,5.8317886E1,1.2983575E0,4.2196617E0,2.596715E0,2.531797E2,2.2721255E0,1.0819645E0,3.4024754E4,1.0733088E2,7.140966E0,1.5472093E1,3.895072E1,1.4065539E0,2.380322E0,5.5937565E1,1.5147504E0,1.0819645E0,3.40082E4,1.6554058E1,9.694402E1,1.038686E1,1.0819645E0,6.0590014E0,1.2983575E0,1.0819645E0,5.4855602E1,1.0819645E0,1.4606521E1,1.9475361E0,1.190161E0,9.575386E1,5.334085E1,1.5147504E0],"tree_param":{"num_deleted":"0","num_feature":"97","num_nodes":"47","size_leaf_vector":"1"}},{"base_weights":[-1.0218124E0,1.2846205E0,-1.0792767E0,-7.306975E-1,1.6126971E0,-1.0935013E0,1.0309812E0,1.6895027E0,-3.2603317E-1,1.6247178E0,-5.709192E-1,-1.096934E0,1.2232143E0,-6.036835E-1,1.5972148E0,5.723299E-1,-7.4363515E-2,1.6291955E0,-9.228669E-2,-2.0110115E-2,-2.1880056E-1,-3.2973993E-1,-5.044277E-1,-8.5713905E-1,5.176645E-1,-3.260746E-1,1.6316212E0,-2.1702757E-1,1.6334275E0,1.6332271E0,-8.107175E-2,-1.079954E0,1.8798378E0,-3.3480844E-1,1.1603488E-1,-4.6595573E-2,5.740253E-1,1.6665862E0,1.947855E-1,4.909618E-1,1.8707773E-1,-3.276879E-1,-2.1271288E-2,1.4424373E-1,5.807076E-1,5.117199E-1,2.4327928E-1,2.9115334E-1,-2.498083E-1],"categories":[],"categories_nodes":[],"categories_segments":[],"categories_sizes":[],"default_left":[0,0,0,0,0,0,0,0,0,0,0,0,0,0,0,0,0,0,0,0,0,0,0,0,0,0,0,0,0,0,0,0,0,0,0,0,0,0,0,0,0,0,0,0,0,0,0,0,0],"id":1,"left_children":[1,3,5,7,9,11,13,15,-1,17,19,21,23,25,27,-1,-1,29,-1,-1,-1,-1,31,33,-1,-1,35,-1,37,39,-1,41,43,-1,-1,-1,-1,45,47,-1,-1,-1,-1,-1,-1,-1,-1,-1,-1],"loss_changes":[3.572998E3,4.3460583E2,7.903965E2,8.151996E1,1.5733765E1,2.0904102E2,1.6439265E2,5.6531944E0,0E0,5.3571777E0,2.5668728E-1,3.342383E1,4.23541E1,5.162451E1,1.2225189E1,0E0,0E0,4.7304688E0,0E0,0E0,0E0,0E0,1.3689143E2,3.0967646E0,0E0,0E0,4.6294518E0,0E0,5.8625183E0,8.491211E-1,0E0,9.1617584E-1,5.911255E-1,0E0,0E0,0E0,0E0,2.8589783E0,4.039685E0,0E0,0E0,0E0,0E0,0E0,0E0,0E0,0E0,0E0,0E0],"parents":[2147483647,0,0,1,1,2,2,3,3,4,4,5,5,6,6,7,7,9,9,10,10,11,11,12,12,13,13,14,14,17,17,22,22,23,23,26,26,28,28,29,29,31,31,32,32,37,37,38,38],"right_children":[2,4,6,8,10,12,14,16,-1,18,20,22,24,26,28,-1,-1,30,-1,-1,-1,-1,32,34,-1,-1,36,-1,38,40,-1,42,44,-1,-1,-1,-1,46,48,-1,-1,-1,-1,-1,-1,-1,-1,-1,-1],"split_conditions":[6.666667E-1,9.0198434E-4,1.4652015E-2,7.352941E-3,3.7433155E-2,8.3402835E-4,8.241759E-3,6.4102565E-3,-3.2603317E-1,4.8034936E-2,1.2376238E-2,1.0256411E-2,6.2539085E-4,6.2539085E-4,1.2E2,5.723299E-1,-7.4363515E-2,4.3196544E-2,-9.228669E-2,-2.0110115E-2,-2.1880056E-1,-3.2973993E-1,6.2539085E-4,8.223684E-4,5.176645E-1,-3.260746E-1,2.7149322E-3,-2.1702757E-1,2.4725275E-2,7.843138E-3,-8.107175E-2,2.4561403E-2,5.050505E-2,-3.3480844E-1,1.1603488E-1,-4.6595573E-2,5.740253E-1,4.1198503E-2,1.9950125E-2,4.909618E-1,1.8707773E-1,-3.276879E-1,-2.1271288E-2,1.4424373E-1,5.807076E-1,5.117199E-1,2.4327928E-1,2.9115334E-1,-2.498083E-1],"split_indices":[94,82,77,19,27,64,71,54,0,17,5,77,83,83,96,0,0,11,0,0,0,0,83,65,0,0,68,0,31,78,0,51,9,0,0,0,0,12,17,0,0,0,0,0,0,0,0,0,0],"split_type":[0,0,0,0,0,0,0,0,0,0,0,0,0,0,0,0,0,0,0,0,0,0,0,0,0,0,0,0,0,0,0,0,0,0,0,0,0,0,0,0,0,0,0,0,0,0,0,0,0],"sum_hessian":[2.694696E4,6.545375E2,2.6292424E4,9.146381E1,5.6307367E2,2.611686E4,1.7556445E2,1.1250661E1,8.021316E1,5.602455E2,2.8281612E0,2.6078746E4,3.8113678E1,4.515113E1,1.3041331E2,1.0125248E1,1.1254135E0,5.591068E2,1.1386875E0,1.0168717E0,1.8112894E0,2.5981465E4,9.728053E1,7.2757516E0,3.0837927E1,3.754775E1,7.6033826E0,1.7122004E0,1.2870111E2,5.5806244E2,1.0443647E0,7.880518E1,1.8475351E1,6.1074624E0,1.1682895E0,1.0968454E0,6.5065374E0,1.256467E2,3.054422E0,5.556188E2,2.4436517E0,7.777167E1,1.0335131E0,1.0781591E0,1.7397192E1,1.19199745E2,6.4469533E0,1.7720252E0,1.2823966E0],"tree_param":{"num_deleted":"0","num_feature":"97","num_nodes":"49","size_leaf_vector":"1"}},{"base_weights":[-9.92592E-1,1.0964515E0,-1.050404E0,-6.9222355E-1,1.3646954E0,-1.064924E0,8.6857086E-1,1.2839898E0,-3.1653067E-1,-4.0965772E-1,1.3783203E0,-1.0684627E0,9.9937505E-1,-3.1356856E-1,1.2102277E0,-6.784712E-2,4.598268E-1,1.2896368E-1,-2.3720919E-1,1.3864892E0,1.7185026E-1,-3.2122633E-1,-4.7605485E-1,-9.433422E-1,1.3841317E0,1.3719056E0,-9.0932447E-1,1.3903735E0,3.9377904E-1,-3.1885418E-1,2.9991806E-1,-1.0439643E0,1.5053262E0,-3.131198E-1,-7.014041E-2,-4.7481903E-3,4.311244E-1,4.3101457E-1,1.424203E0,-3.0412236E-1,-5.370584E-3,4.177036E-1,7.755187E-2,-6.360736E-2,2.428899E-1,-3.1798673E-1,-1.2798819E-2,4.7003803E-1,1.1456939E-1,-1.6721478E-1,3.350095E-1,6.589401E-2,4.3797848E-1],"categories":[],"categories_nodes":[],"categories_segments":[],"categories_sizes":[],"default_left":[0,0,0,0,0,0,0,0,0,0,0,0,0,0,0,0,0,0,0,0,0,0,0,0,0,0,0,0,0,0,0,0,0,0,0,0,0,0,0,0,0,0,0,0,0,0,0,0,0,0,0,0,0],"id":2,"left_children":[1,3,5,7,9,11,13,15,-1,17,19,21,23,-1,25,-1,-1,-1,-1,27,29,-1,31,33,35,37,39,41,43,-1,-1,45,47,-1,-1,-1,-1,49,51,-1,-1,-1,-1,-1,-1,-1,-1,-1,-1,-1,-1,-1,-1],"loss_changes":[2.4754668E3,2.6588666E2,5.564219E2,5.3471863E1,1.2181274E1,1.4561328E2,9.95192E1,4.75165E0,0E0,1.757858E0,4.463623E0,2.6308594E1,2.700267E1,0E0,4.510031E1,0E0,0E0,0E0,0E0,1.2791748E0,5.5090795E0,0E0,8.925301E1,2.0314932E-1,2.1799011E0,5.2563324E0,8.8201475E-1,6.923828E-1,9.882874E-1,0E0,0E0,9.339905E-1,6.2861633E-1,0E0,0E0,0E0,0E0,5.8515778E0,4.524063E0,0E0,0E0,0E0,0E0,0E0,0E0,0E0,0E0,0E0,0E0,0E0,0E0,0E0,0E0],"parents":[2147483647,0,0,1,1,2,2,3,3,4,4,5,5,6,6,7,7,9,9,10,10,11,11,12,12,14,14,19,19,20,20,22,22,23,23,24,24,25,25,26,26,27,27,28,28,31,31,32,32,37,37,38,38],"right_children":[2,4,6,8,10,12,14,16,-1,18,20,22,24,-1,26,-1,-1,-1,-1,28,30,-1,32,34,36,38,40,42,44,-1,-1,46,48,-1,-1,-1,-1,50,52,-1,-1,-1,-1,-1,-1,-1,-1,-1,-1,-1,-1,-1,-1],"split_conditions":[6.666667E-1,9.0198434E-4,1.4652015E-2,7.352941E-3,1.01E2,8.3402835E-4,5.4945056E-3,9.3E2,-3.1653067E-1,2.8653296E-2,3.539823E-2,1.0256411E-2,6.1500614E-4,-3.1356856E-1,3.649635E-2,-6.784712E-2,4.598268E-1,1.2896368E-1,-2.3720919E-1,7.843138E-3,1.2096774E-2,-3.2122633E-1,6.2539085E-4,3.6585366E-3,3.09E2,9.0198434E-4,7.782101E-3,7.7922076E-2,8.130081E-3,-3.1885418E-1,2.9991806E-1,2.9351536E-2,7.5510204E-1,-3.131198E-1,-7.014041E-2,-4.7481903E-3,4.311244E-1,2.8910303E-2,2.0050125E-2,-3.0412236E-1,-5.370584E-3,4.177036E-1,7.755187E-2,-6.360736E-2,2.428899E-1,-3.1798673E-1,-1.2798819E-2,4.7003803E-1,1.1456939E-1,-1.6721478E-1,3.350095E-1,6.589401E-2,4.3797848E-1],"split_indices":[94,82,77,19,96,64,71,96,0,22,11,77,76,0,27,0,0,0,0,78,4,0,83,36,96,82,51,10,28,0,0,20,94,0,0,0,0,71,9,0,0,0,0,0,0,0,0,0,0,0,0,0,0],"split_type":[0,0,0,0,0,0,0,0,0,0,0,0,0,0,0,0,0,0,0,0,0,0,0,0,0,0,0,0,0,0,0,0,0,0,0,0,0,0,0,0,0,0,0,0,0,0,0,0,0,0,0,0,0],"sum_hessian":[2.0486535E4,5.511912E2,1.9935344E4,7.1675026E1,4.795162E2,1.9786076E4,1.4926744E2,1.0725625E1,6.0949398E1,3.4325376E0,4.7608368E2,1.9752697E4,3.337843E1,2.2299109E1,1.2696833E2,1.5297987E0,9.195827E0,1.0315564E0,2.4009812E0,4.7273364E2,3.3500514E0,1.9675775E4,7.692214E1,5.277819E0,2.8100613E1,1.18297424E2,8.670905E0,4.704921E2,2.2415316E0,1.2307234E0,2.119328E0,6.0153793E1,1.6768349E1,4.21102E0,1.0667995E0,1.0496447E0,2.7050966E1,6.7157083E0,1.1158172E2,7.6389055E0,1.0319995E0,4.6944415E2,1.0479405E0,1.1118982E0,1.1296334E0,5.9150543E1,1.0032482E0,1.5524302E1,1.2440481E0,2.8273144E0,3.8883939E0,3.419901E0,1.0816181E2],"tree_param":{"num_deleted":"0","num_feature":"97","num_nodes":"53","size_leaf_vector":"1"}},{"base_weights":[-9.717786E-1,9.921221E-1,-1.0298176E0,-6.597208E-1,1.2299863E0,-1.0484197E0,4.0974817E-1,1.0640904E0,-3.091221E-1,-3.5788155E-1,1.2432277E0,-1.0506094E0,6.8129987E-1,-5.731527E-1,1.3070438E0,-5.657187E-2,3.8762435E-1,-2.1929418E-1,1.13005206E-1,1.2506758E0,2.3846788E-2,-3.1560713E-1,-9.905901E-1,-2.8237617E-1,1.1715144E0,-9.4619143E-1,1.1614854E0,-1.7080995E-1,3.9986777E-1,1.254174E0,3.415503E-2,-2.393068E-1,2.2769977E-1,-3.1476486E-1,2.4252975E0,3.7638038E-1,1.0677363E-3,-1.0177217E0,3.156466E-1,-6.992782E-2,3.8106236E-1,3.77114E-1,4.2685144E-2,-3.1197655E-1,9.1928504E-2],"categories":[],"categories_nodes":[],"categories_segments":[],"categories_sizes":[],"default_left":[0,0,0,0,0,0,0,0,0,0,0,0,0,0,0,0,0,0,0,0,0,0,0,0,0,0,0,0,0,0,0,0,0,0,0,0,0,0,0,0,0,0,0,0,0],"id":3,"left_children":[1,3,5,7,9,11,13,15,-1,17,19,21,23,25,27,-1,-1,-1,-1,29,31,-1,33,-1,35,37,39,-1,-1,41,-1,-1,-1,-1,-1,-1,-1,43,-1,-1,-1,-1,-1,-1,-1],"loss_changes":[1.763793E3,1.7543546E2,4.0269824E2,3.725912E1,8.620544E0,5.688672E1,1.7039725E2,3.2446575E0,0E0,1.3694856E0,3.4744263E0,2.1582031E-1,1.6499332E1,6.0950516E1,5.6509857E0,0E0,0E0,0E0,0E0,1.3822632E0,2.635884E0,0E0,1.9901758E2,0E0,1.4813709E0,1.20308E1,2.8462715E0,0E0,0E0,1.0419312E0,0E0,0E0,0E0,0E0,0E0,0E0,0E0,2.5096436E0,0E0,0E0,0E0,0E0,0E0,0E0,0E0],"parents":[2147483647,0,0,1,1,2,2,3,3,4,4,5,5,6,6,7,7,9,9,10,10,11,11,12,12,13,13,14,14,19,19,20,20,22,22,24,24,25,25,26,26,29,29,37,37],"right_children":[2,4,6,8,10,12,14,16,-1,18,20,22,24,26,28,-1,-1,-1,-1,30,32,-1,34,-1,36,38,40,-1,-1,42,-1,-1,-1,-1,-1,-1,-1,44,-1,-1,-1,-1,-1,-1,-1],"split_conditions":[6.666667E-1,9.0198434E-4,1.0256411E-2,7.352941E-3,1.01E2,8.3402835E-4,6.2539085E-4,9.3E2,-3.091221E-1,1.4336918E-2,4.375E-2,1.5E-3,3.96E2,2.8910303E-2,9.0198434E-4,-5.657187E-2,3.8762435E-1,-2.1929418E-1,1.13005206E-1,2.8880866E-2,8E-3,-3.1560713E-1,6.2539085E-4,-2.8237617E-1,4.1800644E-2,8E2,3.6363637E-3,-1.7080995E-1,3.9986777E-1,1.5384615E-2,3.415503E-2,-2.393068E-1,2.2769977E-1,-3.1476486E-1,2.4252975E0,3.7638038E-1,1.0677363E-3,1.6501651E-3,3.156466E-1,-6.992782E-2,3.8106236E-1,3.77114E-1,4.2685144E-2,-3.1197655E-1,9.1928504E-2],"split_indices":[94,82,77,19,96,64,83,96,0,71,17,82,96,71,82,0,0,0,0,0,28,0,83,0,10,96,20,0,0,70,0,0,0,0,0,0,0,35,0,0,0,0,0,0,0],"split_type":[0,0,0,0,0,0,0,0,0,0,0,0,0,0,0,0,0,0,0,0,0,0,0,0,0,0,0,0,0,0,0,0,0,0,0,0,0,0,0,0,0,0,0,0,0],"sum_hessian":[1.5464238E4,4.434328E2,1.5020806E4,5.5593235E1,3.8783957E2,1.482945E4,1.9135513E2,9.507884E0,4.608535E1,2.9922433E0,3.8484732E2,1.4811094E4,1.835712E1,9.1493774E1,9.986137E1,1.4906437E0,8.017241E0,1.9875908E0,1.0046525E0,3.824854E2,2.361908E0,1.4453962E4,3.5713168E2,4.0458236E0,1.4311297E1,7.567433E1,1.5819441E1,1.0712427E0,9.879012E1,3.8120914E2,1.2762818E0,1.0752478E0,1.2866603E0,3.5571805E2,1.4136364E0,1.3291566E1,1.0197315E0,7.353296E1,2.1413722E0,1.0613686E0,1.4758072E1,3.8009662E2,1.1125089E0,7.253158E1,1.001381E0],"tree_param":{"num_deleted":"0","num_feature":"97","num_nodes":"45","size_leaf_vector":"1"}},{"base_weights":[-9.568738E-1,9.235199E-1,-1.0151353E0,-6.2987757E-1,1.1432314E0,-1.0340518E0,3.8111016E-1,9.0969455E-1,-3.02904E-1,-2.2594711E-1,1.1591004E0,-1.0363209E0,6.0641146E-1,-5.40085E-1,1.2017076E0,3.3399403E-1,-1.0132492E-1,-2.2463226E-1,2.0157689E-1,1.1690911E0,9.1147665E-3,-3.113576E-1,-9.7192574E-1,-2.6246384E-1,1.0535781E0,-9.416701E-1,9.0283644E-1,-4.383064E-2,3.6882383E-1,1.1741247E0,6.814791E-2,-2.6343206E-1,2.2470137E-1,-3.102606E-1,1.2337513E0,3.4342307E-1,9.060518E-4,-1.022448E0,2.7861768E-1,-1.5626751E-1,1.0728207E0,3.5333392E-1,8.5063435E-2,6.7162365E-1,-3.230897E-1,-3.095157E-1,-7.8445435E-2,1.0829276E-2,3.4454295E-1],"categories":[],"categories_nodes":[],"categories_segments":[],"categories_sizes":[],"default_left":[0,0,0,0,0,0,0,0,0,0,0,0,0,0,0,0,0,0,0,0,0,0,0,0,0,0,0,0,0,0,0,0,0,0,0,0,0,0,0,0,0,0,0,0,0,0,0,0,0],"id":4,"left_children":[1,3,5,7,9,11,13,15,-1,17,19,21,23,25,27,-1,-1,-1,-1,29,31,-1,33,-1,35,37,39,-1,-1,41,-1,-1,-1,-1,43,-1,-1,45,-1,-1,47,-1,-1,-1,-1,-1,-1,-1,-1],"loss_changes":[1.2739082E3,1.2007916E2,2.9808008E2,2.663485E1,6.9265747E0,4.202246E1,1.1508772E2,2.72013E0,0E0,2.5457506E0,3.4750366E0,9.082031E-2,1.15139885E1,4.2578022E1,3.1809235E0,0E0,0E0,0E0,0E0,1.1593018E0,3.0346427E0,0E0,3.9016663E1,0E0,1.2164001E0,9.534782E0,4.476738E0,0E0,0E0,6.390991E-1,0E0,0E0,0E0,0E0,2.0990456E1,0E0,0E0,1.178627E-1,0E0,0E0,1.1185131E0,0E0,0E0,0E0,0E0,0E0,0E0,0E0,0E0],"parents":[2147483647,0,0,1,1,2,2,3,3,4,4,5,5,6,6,7,7,9,9,10,10,11,11,12,12,13,13,14,14,19,19,20,20,22,22,24,24,25,25,26,26,29,29,34,34,37,37,40,40],"right_children":[2,4,6,8,10,12,14,16,-1,18,20,22,24,26,28,-1,-1,-1,-1,30,32,-1,34,-1,36,38,40,-1,-1,42,-1,-1,-1,-1,44,-1,-1,46,-1,-1,48,-1,-1,-1,-1,-1,-1,-1,-1],"split_conditions":[6.666667E-1,9.0198434E-4,1.0256411E-2,7.352941E-3,1.16E2,8.3402835E-4,6.2539085E-4,6.4102565E-3,-3.02904E-1,1.8181818E-2,3.539823E-2,1.5E-3,3.96E2,2.1276595E-2,5.1282053E-3,3.3399403E-1,-1.0132492E-1,-2.2463226E-1,2.0157689E-1,7.843138E-3,1.2096774E-2,-3.113576E-1,6.2539085E-4,-2.6246384E-1,4.1800644E-2,8E2,3.4482758E-3,-4.383064E-2,3.6882383E-1,4.375E-2,6.814791E-2,-2.6343206E-1,2.2470137E-1,-3.102606E-1,7.575758E-3,3.4342307E-1,9.060518E-4,6.116208E-3,2.7861768E-1,-1.5626751E-1,2.5720164E-2,3.5333392E-1,8.5063435E-2,6.7162365E-1,-3.230897E-1,-3.095157E-1,-7.8445435E-2,1.0829276E-2,3.4454295E-1],"split_indices":[94,82,77,19,96,64,83,54,0,71,11,82,96,71,71,0,0,0,0,78,4,0,83,0,10,96,20,0,0,17,0,0,0,0,47,0,0,63,0,0,71,0,0,0,0,0,0,0,0],"split_type":[0,0,0,0,0,0,0,0,0,0,0,0,0,0,0,0,0,0,0,0,0,0,0,0,0,0,0,0,0,0,0,0,0,0,0,0,0,0,0,0,0,0,0,0,0,0,0,0,0],"sum_hessian":[1.1618514E4,3.487197E2,1.1269794E4,4.2979626E1,3.0574008E2,1.1119406E4,1.5038788E2,8.228658E0,3.475097E1,3.3512952E0,3.023888E2,1.1104415E4,1.4991078E1,7.101214E1,7.937573E1,7.1664157E0,1.0622417E0,2.2229393E0,1.128356E0,2.9976788E2,2.6209166E0,1.0830659E4,2.7375577E2,3.25431E0,1.1736769E1,5.5823162E1,1.5188976E1,1.5126792E0,7.786306E1,2.979293E2,1.8385895E0,1.1068525E0,1.514064E0,2.667552E2,7.0005817E0,1.0717106E1,1.019663E0,5.394669E1,1.8764724E0,1.3998628E0,1.3789114E1,2.9639038E2,1.5388899E0,4.9004073E0,2.1001744E0,5.2945827E1,1.0008636E0,1.038298E0,1.2750815E1],"tree_param":{"num_deleted":"0","num_feature":"97","num_nodes":"49","size_leaf_vector":"1"}},{"base_weights":[-9.457463E-1,8.7615734E-1,-1.0042512E0,-6.0206574E-1,1.0855019E0,-1.0235283E0,3.5811433E-1,7.758665E-1,-2.9722917E-1,1.0989909E0,-1.1706432E-1,-1.0258937E0,5.4452807E-1,-5.1308125E-1,1.1255562E0,-7.375835E-2,3.0934682E-1,1.1073203E0,-9.427077E-2,-3.0828506E-1,-9.537807E-1,-2.2671053E-1,9.919287E-1,-9.735013E-1,6.4974463E-1,-3.622182E-2,3.4730673E-1,1.1153649E0,1.6931598E-1,-3.0721298E-1,8.626402E-1,5.430516E-2,3.1946912E-1,-3.0338585E-1,7.300153E-2,8.895201E-1,-6.654687E-1,3.3636448E-1,6.0899E-2,-1.3759865E-1,2.0096494E-1,4.60115E-1,-2.5527954E-1,3.034194E-1,-9.2934355E-2,-5.6844015E-2,-2.4099994E-1],"categories":[],"categories_nodes":[],"categories_segments":[],"categories_sizes":[],"default_left":[0,0,0,0,0,0,0,0,0,0,0,0,0,0,0,0,0,0,0,0,0,0,0,0,0,0,0,0,0,0,0,0,0,0,0,0,0,0,0,0,0,0,0,0,0,0,0],"id":5,"left_children":[1,3,5,7,9,11,13,15,-1,17,-1,19,21,23,25,-1,-1,27,-1,-1,29,-1,31,33,35,-1,-1,37,39,-1,41,-1,-1,-1,-1,43,45,-1,-1,-1,-1,-1,-1,-1,-1,-1,-1],"loss_changes":[9.280137E2,8.456514E1,2.2170312E2,1.9129332E1,5.1640015E0,3.138379E1,7.96919E1,2.3671565E0,0E0,3.125824E0,0E0,5.1757812E-2,8.41122E0,3.067085E1,2.6717224E0,0E0,0E0,1.5830688E0,0E0,0E0,2.73779E1,0E0,4.1262627E-1,2.1124268E0,5.799618E0,0E0,0E0,1.0140991E0,1.3055248E0,0E0,1.0819511E1,0E0,0E0,0E0,0E0,2.4174356E0,5.242014E-2,0E0,0E0,0E0,0E0,0E0,0E0,0E0,0E0,0E0,0E0],"parents":[2147483647,0,0,1,1,2,2,3,3,4,4,5,5,6,6,7,7,9,9,11,11,12,12,13,13,14,14,17,17,20,20,22,22,23,23,24,24,27,27,28,28,30,30,35,35,36,36],"right_children":[2,4,6,8,10,12,14,16,-1,18,-1,20,22,24,26,-1,-1,28,-1,-1,30,-1,32,34,36,-1,-1,38,40,-1,42,-1,-1,-1,-1,44,46,-1,-1,-1,-1,-1,-1,-1,-1,-1,-1],"split_conditions":[6.666667E-1,9.0198434E-4,1.0256411E-2,7.352941E-3,3.7433155E-2,8.3402835E-4,6.2539085E-4,9.3E2,-2.9722917E-1,6.969697E-2,-1.1706432E-1,1.5E-3,6.1500614E-4,1.6064256E-2,5.1282053E-3,-7.375835E-2,3.0934682E-1,4.152249E-2,-9.427077E-2,-3.0828506E-1,4.2E2,-2.2671053E-1,1.4836795E-3,5.45E2,4.6332046E-2,-3.622182E-2,3.4730673E-1,7.843138E-3,9.803922E-3,-3.0721298E-1,7.575758E-3,5.430516E-2,3.1946912E-1,-3.0338585E-1,7.300153E-2,1.8292682E-2,4.1666668E-2,3.3636448E-1,6.0899E-2,-1.3759865E-1,2.0096494E-1,4.60115E-1,-2.5527954E-1,3.034194E-1,-9.2934355E-2,-5.6844015E-2,-2.4099994E-1],"split_indices":[94,82,77,19,27,64,83,96,0,5,0,82,76,71,71,0,0,17,0,0,96,0,46,96,6,0,0,78,71,0,47,0,0,0,0,27,12,0,0,0,0,0,0,0,0,0,0],"split_type":[0,0,0,0,0,0,0,0,0,0,0,0,0,0,0,0,0,0,0,0,0,0,0,0,0,0,0,0,0,0,0,0,0,0,0,0,0,0,0,0,0,0,0,0,0,0,0],"sum_hessian":[8.697093E3,2.7015674E2,8.426936E3,3.3280518E1,2.3687624E2,8.309606E3,1.1732986E2,7.1033E0,2.6177216E1,2.3498361E2,1.8926244E0,8.297436E3,1.2170545E1,5.5105667E1,6.2224194E1,1.4274094E0,5.6758904E0,2.3382195E2,1.1616697E0,8.090841E3,2.0659465E2,2.939299E0,9.231245E0,3.959204E1,1.5513627E1,1.4946712E0,6.072952E1,2.3164621E2,2.1757276E0,1.993208E2,7.27386E0,1.049435E0,8.18181E0,3.8563507E1,1.0285347E0,1.3395223E1,2.1184042E0,2.2994295E2,1.7032648E0,1.0021776E0,1.1735501E0,5.302307E0,1.9715527E0,1.2301747E1,1.0934759E0,1.0090314E0,1.1093727E0],"tree_param":{"num_deleted":"0","num_feature":"97","num_nodes":"47","size_leaf_vector":"1"}},{"base_weights":[-9.3716615E-1,8.3827955E-1,-9.959881E-1,-5.7212555E-1,1.0406308E0,-1.0157192E0,3.3338553E-1,6.7112064E-1,-2.9159546E-1,-2.540756E-1,1.0598602E0,-1.0182406E0,4.8897254E-1,-4.88748E-1,1.0655191E0,-7.155841E-2,2.8913763E-1,1.0031329E-1,-1.892284E-1,1.073856E0,-9.80881E-2,-3.0552036E-1,-4.1293466E-1,-2.2923377E-1,9.0174216E-1,-8.461362E-1,8.9854187E-1,-2.9909993E-2,3.3108947E-1,1.0843046E0,2.2039594E-1,-2.243681E-1,1.7656374E-1,-1.7442119E-1,-3.4818235E-3,3.0212113E-1,1.6985796E-2,-9.990142E-1,3.8369504E-1,3.1241465E-1,-3.5745673E-2,3.264536E-1,8.37015E-2,1.9212312E-1,-1.1810608E-1,-3.0461526E-1,-8.4634595E-2,-1.5705262E-1,2.8398684E-1],"categories":[],"categories_nodes":[],"categories_segments":[],"categories_sizes":[],"default_left":[0,0,0,0,0,0,0,0,0,0,0,0,0,0,0,0,0,0,0,0,0,0,0,0,0,0,0,0,0,0,0,0,0,0,0,0,0,0,0,0,0,0,0,0,0,0,0,0,0],"id":6,"left_children":[1,3,5,7,9,11,13,15,-1,17,19,21,23,25,27,-1,-1,-1,-1,29,31,-1,33,-1,35,37,39,-1,-1,41,43,-1,-1,-1,-1,-1,-1,45,47,-1,-1,-1,-1,-1,-1,-1,-1,-1,-1],"loss_changes":[6.7933887E2,6.0211365E1,1.652998E2,1.4002191E1,4.826172E0,2.4009766E1,5.633705E1,2.1272168E0,0E0,9.8347646E-1,3.0313568E0,1.8066406E-1,6.400918E0,2.2757282E1,2.3023071E0,0E0,0E0,0E0,0E0,1.3526001E0,1.8110412E0,0E0,2.1789104E-1,0E0,7.232442E-1,7.1129646E0,1.5157232E0,0E0,0E0,2.456665E-1,1.132597E0,0E0,0E0,0E0,0E0,0E0,0E0,9.041977E-2,2.8855758E0,0E0,0E0,0E0,0E0,0E0,0E0,0E0,0E0,0E0,0E0],"parents":[2147483647,0,0,1,1,2,2,3,3,4,4,5,5,6,6,7,7,9,9,10,10,11,11,12,12,13,13,14,14,19,19,20,20,22,22,24,24,25,25,26,26,29,29,30,30,37,37,38,38],"right_children":[2,4,6,8,10,12,14,16,-1,18,20,22,24,26,28,-1,-1,-1,-1,30,32,-1,34,-1,36,38,40,-1,-1,42,44,-1,-1,-1,-1,-1,-1,46,48,-1,-1,-1,-1,-1,-1,-1,-1,-1,-1],"split_conditions":[6.666667E-1,9.0198434E-4,1.0256411E-2,7.352941E-3,1.16E2,8.3402835E-4,6.2539085E-4,1.9305019E-3,-2.9159546E-1,1.0752688E-3,3.539823E-2,1.8154312E-3,3.96E2,2.8910303E-2,5.1282053E-3,-7.155841E-2,2.8913763E-1,1.0031329E-1,-1.892284E-1,1.0948905E-2,1.2096774E-2,-3.0552036E-1,5.076142E-2,-2.2923377E-1,5.0847456E-2,8.223684E-4,3.1486146E-2,-2.9909993E-2,3.3108947E-1,2.631579E-2,3.6319613E-3,-2.243681E-1,1.7656374E-1,-1.7442119E-1,-3.4818235E-3,3.0212113E-1,1.6985796E-2,4.9342103E-3,1.1029412E-2,3.1241465E-1,-3.5745673E-2,3.264536E-1,8.37015E-2,1.9212312E-1,-1.1810608E-1,-3.0461526E-1,-8.4634595E-2,-1.5705262E-1,2.8398684E-1],"split_indices":[94,82,77,19,96,64,83,62,0,59,11,93,96,71,71,0,0,0,0,70,4,0,9,0,7,65,18,0,0,31,3,0,0,0,0,0,0,61,49,0,0,0,0,0,0,0,0,0,0],"split_type":[0,0,0,0,0,0,0,0,0,0,0,0,0,0,0,0,0,0,0,0,0,0,0,0,0,0,0,0,0,0,0,0,0,0,0,0,0,0,0,0,0,0,0,0,0,0,0,0,0],"sum_hessian":[6.4959004E3,2.0788785E2,6.2880127E3,2.5854237E1,1.8203362E2,6.196281E3,9.17317E1,6.1266875E0,1.9727549E1,2.4853253E0,1.795483E2,6.186238E3,1.0043104E1,4.3366573E1,4.8365124E1,1.5364043E0,4.590283E0,1.0138382E0,1.471487E0,1.7747581E2,2.0724735E0,6.1839155E3,2.3224933E0,2.2775967E0,7.765507E0,3.479333E1,8.573242E0,1.4806578E0,4.6884464E1,1.750621E2,2.4137068E0,1.0189543E0,1.0535191E0,1.3197796E0,1.0027138E0,6.7345495E0,1.0309576E0,3.1113369E1,3.679962E0,7.497624E0,1.075618E0,1.7387437E2,1.1877272E0,1.4078834E0,1.0058233E0,3.0011711E1,1.1016585E0,1.4359068E0,2.2440553E0],"tree_param":{"num_deleted":"0","num_feature":"97","num_nodes":"49","size_leaf_vector":"1"}},{"base_weights":[-9.2954445E-1,8.067557E-1,-9.8873055E-1,-4.8438796E-1,1.0183748E0,-1.0089698E0,3.1687495E-1,-2.9620823E-1,7.9291636E-1,-2.2863513E-1,1.0555774E0,-1.011647E0,4.3818578E-1,-4.6062836E-1,1.0135398E0,-9.266202E-4,2.7735817E-1,3.1895068E-1,3.1123333E-2,-1.0146374E0,-8.897055E-1,-1.7951667E-1,2.6618972E-1,-2.9267773E-1,4.4511193E-1,-2.46836E-2,3.1778896E-1,-3.044575E-1,-3.561075E-1,-3.020817E-1,9.535211E-1,7.6632726E-1,-5.362476E-1,-3.1059848E-3,-1.5619993E-1,4.2550004E-1,-2.0309342E-1,2.7899864E-1,-8.195148E-2,-2.2482605E-1,1.0266991E-2],"categories":[],"categories_nodes":[],"categories_segments":[],"categories_sizes":[],"default_left":[0,0,0,0,0,0,0,0,0,0,0,0,0,0,0,0,0,0,0,0,0,0,0,0,0,0,0,0,0,0,0,0,0,0,0,0,0,0,0,0,0],"id":7,"left_children":[1,3,5,7,9,11,13,-1,15,-1,17,19,21,23,25,-1,-1,-1,-1,27,29,-1,-1,-1,31,-1,-1,-1,33,-1,35,37,39,-1,-1,-1,-1,-1,-1,-1,-1],"loss_changes":[4.990249E2,4.4310364E1,1.2421924E2,1.57265835E1,9.952484E0,1.8333496E1,3.9649025E1,0E0,7.494254E-1,0E0,8.7023926E-1,7.7734375E-1,4.8251686E0,1.669975E1,2.0158157E0,0E0,0E0,0E0,0E0,2.9248047E-1,2.655568E1,0E0,0E0,0E0,4.612005E0,0E0,0E0,0E0,1.6794458E-1,0E0,6.7176094E0,2.0323286E0,4.9685454E-1,0E0,0E0,0E0,0E0,0E0,0E0,0E0,0E0],"parents":[2147483647,0,0,1,1,2,2,3,3,4,4,5,5,6,6,8,8,10,10,11,11,12,12,13,13,14,14,19,19,20,20,24,24,28,28,30,30,31,31,32,32],"right_children":[2,4,6,8,10,12,14,-1,16,-1,18,20,22,24,26,-1,-1,-1,-1,28,30,-1,-1,-1,32,-1,-1,-1,34,-1,36,38,40,-1,-1,-1,-1,-1,-1,-1,-1],"split_conditions":[6.666667E-1,9.049774E-4,1.0256411E-2,7.9631455E-2,6.455778E-4,8.3402835E-4,6.2539085E-4,-2.9620823E-1,3.8610038E-3,-2.2863513E-1,1.3888889E-2,1.5E-3,6.2539085E-4,1.2048192E-2,5.1282053E-3,-9.266202E-4,2.7735817E-1,3.1895068E-1,3.1123333E-2,1.8154312E-3,4.2E2,-1.7951667E-1,2.6618972E-1,-2.9267773E-1,3.723404E-2,-2.46836E-2,3.1778896E-1,-3.044575E-1,7.025761E-3,-3.020817E-1,7.575758E-3,1.8248174E-2,1.0830325E-2,-3.1059848E-3,-1.5619993E-1,4.2550004E-1,-2.0309342E-1,2.7899864E-1,-8.195148E-2,-2.2482605E-1,1.0266991E-2],"split_indices":[94,77,77,64,71,64,83,0,37,0,70,82,83,71,71,0,0,0,0,93,96,0,0,0,6,0,0,0,59,0,47,31,49,0,0,0,0,0,0,0,0],"split_type":[0,0,0,0,0,0,0,0,0,0,0,0,0,0,0,0,0,0,0,0,0,0,0,0,0,0,0,0,0,0,0,0,0,0,0,0,0,0,0,0,0],"sum_hessian":[4.84722E3,1.5936661E2,4.6878535E3,2.2260494E1,1.3710612E2,4.6165166E3,7.13373E1,1.6134212E1,6.126282E0,2.4073362E0,1.3469879E2,4.608292E3,8.224178E0,3.3872814E1,3.746449E1,1.0077523E0,5.11853E0,1.3351694E2,1.181852E0,4.490843E3,1.17449646E2,2.3856366E0,5.838542E0,2.1545736E1,1.2327077E1,1.4696642E0,3.5994823E1,4.488796E3,2.0464747E0,1.1085285E2,6.5967927E0,9.452299E0,2.8747783E0,1.0026742E0,1.0438005E0,5.2346535E0,1.3621389E0,8.257504E0,1.1947948E0,1.8644041E0,1.0103742E0],"tree_param":{"num_deleted":"0","num_feature":"97","num_nodes":"41","size_leaf_vector":"1"}},{"base_weights":[-9.23909E-1,7.807254E-1,-9.834477E-1,-4.5061603E-1,9.901179E-1,-1.0043343E0,2.9496828E-1,7.1488595E-1,-2.920949E-1,-2.1186157E-1,1.0294226E0,-1.0072453E0,3.8405174E-1,-4.3764403E-1,9.6459615E-1,-2.0870376E-2,2.6279563E-1,1.0404038E0,9.704606E-3,-1.0105263E0,-8.736631E-1,7.6857424E-1,-2.0745942E-1,-7.847849E-1,7.5020087E-1,-2.7246252E-2,3.102936E-1,3.1365743E-1,8.1164554E-2,-3.0324662E-1,-9.6331686E-2,-2.997581E-1,7.950819E-1,2.8121304E-2,2.6995227E-1,-9.1489244E-1,2.0383541E-1,2.781866E-1,-4.0950626E-2,3.6619824E-1,-1.9508855E-1,-2.9517537E-1,-1.6455622E-2],"categories":[],"categories_nodes":[],"categories_segments":[],"categories_sizes":[],"default_left":[0,0,0,0,0,0,0,0,0,0,0,0,0,0,0,0,0,0,0,0,0,0,0,0,0,0,0,0,0,0,0,0,0,0,0,0,0,0,0,0,0,0,0],"id":8,"left_children":[1,3,5,7,9,11,13,15,-1,-1,17,19,21,23,25,-1,-1,27,-1,29,31,33,-1,35,37,-1,-1,-1,-1,-1,-1,-1,39,-1,-1,41,-1,-1,-1,-1,-1,-1,-1],"loss_changes":[3.6738574E2,3.2022537E1,9.350806E1,1.1965301E1,7.726471E0,1.4268799E1,2.8330612E1,8.574698E-1,0E0,0E0,1.094223E0,6.196289E-1,3.803286E0,1.2074638E1,2.303833E0,0E0,0E0,1.1869049E-1,0E0,3.5668945E-1,1.9555908E1,4.738233E-1,0E0,4.8211975E0,1.1960192E0,0E0,0E0,0E0,0E0,0E0,0E0,0E0,4.99067E0,0E0,0E0,1.173172E0,0E0,0E0,0E0,0E0,0E0,0E0,0E0],"parents":[2147483647,0,0,1,1,2,2,3,3,4,4,5,5,6,6,7,7,10,10,11,11,12,12,13,13,14,14,17,17,19,19,20,20,21,21,23,23,24,24,32,32,35,35],"right_children":[2,4,6,8,10,12,14,16,-1,-1,18,20,22,24,26,-1,-1,28,-1,30,32,34,-1,36,38,-1,-1,-1,-1,-1,-1,-1,40,-1,-1,42,-1,-1,-1,-1,-1,-1,-1],"split_conditions":[6.666667E-1,9.049774E-4,1.0256411E-2,2.4725275E-2,6.455778E-4,8.3402835E-4,6.2539085E-4,4.830918E-3,-2.920949E-1,-2.1186157E-1,4.1353382E-2,1.5E-3,4.400978E-2,2.8910303E-2,1.3297872E-3,-2.0870376E-2,2.6279563E-1,1.0989011E-2,9.704606E-3,1.8154312E-3,6.2539085E-4,9.940357E-4,-2.0745942E-1,1.0989011E-2,2.8368793E-2,-2.7246252E-2,3.102936E-1,3.1365743E-1,8.1164554E-2,-3.0324662E-1,-9.6331686E-2,-2.997581E-1,7.575758E-3,2.8121304E-2,2.6995227E-1,8.223684E-4,2.0383541E-1,2.781866E-1,-4.0950626E-2,3.6619824E-1,-1.9508855E-1,-2.9517537E-1,-1.6455622E-2],"split_indices":[94,77,77,1,71,64,83,60,0,0,13,82,10,71,82,0,0,69,0,93,83,23,0,61,18,0,0,0,0,0,0,0,47,0,0,65,0,0,0,0,0,0,0],"split_type":[0,0,0,0,0,0,0,0,0,0,0,0,0,0,0,0,0,0,0,0,0,0,0,0,0,0,0,0,0,0,0,0,0,0,0,0,0,0,0,0,0,0,0],"sum_hessian":[3.6112974E3,1.21468025E2,3.4898293E3,1.748641E1,1.0398161E2,3.4339402E3,5.588898E1,5.3028946E0,1.2183516E1,1.9705086E0,1.0201111E2,3.4270295E3,6.9107947E0,2.6854746E1,2.9034235E1,1.0002874E0,4.302607E0,1.0085687E2,1.154237E0,3.3384668E3,8.8562775E1,5.301084E0,1.6097103E0,2.104406E1,5.810686E0,1.7802703E0,2.7253965E1,9.983471E1,1.0221593E0,3.336569E3,1.8974844E0,8.273993E1,5.822841E0,1.1423596E0,4.158725E0,1.9671303E1,1.3727568E0,4.805238E0,1.0054482E0,4.61845E0,1.2043908E0,1.8076479E1,1.5948247E0],"tree_param":{"num_deleted":"0","num_feature":"97","num_nodes":"43","size_leaf_vector":"1"}},{"base_weights":[-9.188568E-1,7.567064E-1,-9.7884107E-1,-2.2970885E-1,1.0157768E0,-1.0006653E0,2.8162193E-1,-7.504611E-1,7.419925E-1,3.0818146E-1,9.4012514E-2,-1.0038565E0,3.382485E-1,-8.4397167E-1,6.808463E-1,-9.5806235E-1,1.768619E-1,2.6694566E-1,-8.392828E-3,-1.0074106E0,-8.5872906E-1,-1.6894506E-1,2.3062871E-1,-2.9342198E-1,8.112801E-2,-2.441316E-1,9.004249E-1,-8.277031E-2,-2.9861534E-1,-3.0234247E-1,-8.310376E-2,-2.9786196E-1,6.724712E-1,1.5119265E-1,3.0570042E-1,-1.19673654E-1,3.0509153E-1,1.8948914E-1,-1.5796404E-1],"categories":[],"categories_nodes":[],"categories_segments":[],"categories_sizes":[],"default_left":[0,0,0,0,0,0,0,0,0,0,0,0,0,0,0,0,0,0,0,0,0,0,0,0,0,0,0,0,0,0,0,0,0,0,0,0,0,0,0],"id":9,"left_children":[1,3,5,7,9,11,13,15,17,-1,-1,19,21,23,25,27,-1,-1,-1,29,31,-1,-1,-1,-1,-1,33,-1,-1,-1,-1,-1,35,37,-1,-1,-1,-1,-1],"loss_changes":[2.7108057E2,2.4134415E1,7.172803E1,1.0813782E1,2.776184E-1,1.1249023E1,2.0789043E1,4.374428E0,8.871527E-1,0E0,0E0,4.4873047E-1,3.0791514E0,2.09132E0,1.1812387E1,3.6958694E-2,0E0,0E0,0E0,4.4140625E-1,1.4567131E1,0E0,0E0,0E0,0E0,0E0,2.5032253E0,0E0,0E0,0E0,0E0,0E0,2.637588E0,2.0456781E0,0E0,0E0,0E0,0E0,0E0],"parents":[2147483647,0,0,1,1,2,2,3,3,4,4,5,5,6,6,7,7,8,8,11,11,12,12,13,13,14,14,15,15,19,19,20,20,26,26,32,32,33,33],"right_children":[2,4,6,8,10,12,14,16,18,-1,-1,20,22,24,26,28,-1,-1,-1,30,32,-1,-1,-1,-1,-1,34,-1,-1,-1,-1,-1,36,38,-1,-1,-1,-1,-1],"split_conditions":[6.666667E-1,6.2539085E-4,1.0256411E-2,1.0989011E-3,4.3165468E-2,8.3402835E-4,1.0989011E-3,2.1276595E-2,1.7964073E-2,3.0818146E-1,9.4012514E-2,1.5E-3,6.1500614E-4,3.6363635E-2,1.8181818E-3,9.302326E-3,1.768619E-1,2.6694566E-1,-8.392828E-3,1.8154312E-3,4.2E2,-1.6894506E-1,2.3062871E-1,-2.9342198E-1,8.112801E-2,-2.441316E-1,1.1029412E-2,-8.277031E-2,-2.9861534E-1,-3.0234247E-1,-8.310376E-2,-2.9786196E-1,3.4013607E-2,5.586592E-3,3.0570042E-1,-1.19673654E-1,3.0509153E-1,1.8948914E-1,-1.5796404E-1],"split_indices":[94,83,77,66,5,64,43,71,19,0,0,82,76,82,71,22,0,0,0,93,96,0,0,0,0,0,49,0,0,0,0,0,9,45,0,0,0,0,0],"split_type":[0,0,0,0,0,0,0,0,0,0,0,0,0,0,0,0,0,0,0,0,0,0,0,0,0,0,0,0,0,0,0,0,0,0,0,0,0,0,0],"sum_hessian":[2.6887524E3,9.2527626E1,2.5962249E3,1.9270014E1,7.325761E1,2.5522402E3,4.3984497E1,1.269449E1,6.5755234E0,7.1622986E1,1.6346254E0,2.5464214E3,5.8190265E0,1.1224248E1,3.276025E1,1.1238398E1,1.4560935E0,5.385839E0,1.1896844E0,2.4797517E3,6.6669685E1,1.7812996E0,4.037727E0,1.0127841E1,1.0964072E0,3.8497663E0,2.8910484E1,1.018318E0,1.0220079E1,2.478023E3,1.7286336E0,6.1622673E1,5.047015E0,4.2611613E0,2.4649323E1,1.1895663E0,3.8574488E0,2.5333483E0,1.7278131E0],"tree_param":{"num_deleted":"0","num_feature":"97","num_nodes":"39","size_leaf_vector":"1"}},{"base_weights":[-9.1407293E-1,7.334825E-1,-9.74848E-1,-4.2251205E-1,9.45167E-1,-9.974937E-1,2.582072E-1,-2.6775464E-1,1.9555135E-1,-1.806439E-1,9.897918E-1,-1.0010424E0,2.8980637E-1,-3.8658905E-1,8.836358E-1,3.0309114E-1,2.103597E-2,-1.0015585E0,-7.768728E-2,-1.8055657E-1,6.676238E-1,-2.7423596E-1,2.9859284E-1,-2.5579743E-2,2.9109854E-1,-3.0165744E-1,-8.397675E-1,2.3699768E-1,3.3142984E-2,2.4915454E-1,-1.7331485E-1,-2.9544252E-1,1.8115728E-1,-1.8445858E-1,1.2845139E-1],"categories":[],"categories_nodes":[],"categories_segments":[],"categories_sizes":[],"default_left":[0,0,0,0,0,0,0,0,0,0,0,0,0,0,0,0,0,0,0,0,0,0,0,0,0,0,0,0,0,0,0,0,0,0,0],"id":10,"left_children":[1,3,5,7,9,11,13,-1,-1,-1,15,17,19,21,23,-1,-1,25,-1,-1,27,-1,29,-1,-1,-1,31,-1,-1,-1,33,-1,-1,-1,-1],"loss_changes":[2.01245E2,1.7973602E1,5.420227E1,6.543584E0,4.808716E0,8.956909E0,1.471207E1,0E0,0E0,0E0,1.0549545E0,4.6557617E-1,2.42013E0,6.8663263E0,1.6277075E0,0E0,0E0,3.6865234E-1,0E0,0E0,2.3194075E-1,0E0,2.3249698E0,0E0,0E0,0E0,1.1336876E1,0E0,0E0,0E0,1.7057726E0,0E0,0E0,0E0,0E0],"parents":[2147483647,0,0,1,1,2,2,3,3,4,4,5,5,6,6,10,10,11,11,12,12,13,13,14,14,17,17,20,20,22,22,26,26,30,30],"right_children":[2,4,6,8,10,12,14,-1,-1,-1,16,18,20,22,24,-1,-1,26,-1,-1,28,-1,30,-1,-1,-1,32,-1,-1,-1,34,-1,-1,-1,-1],"split_conditions":[6.666667E-1,9.049774E-4,1.0256411E-2,7.9631455E-2,6.455778E-4,8.3402835E-4,6.2539085E-4,-2.6775464E-1,1.9555135E-1,-1.806439E-1,1.0948905E-2,1.8154312E-3,3.96E2,1.2048192E-2,1.3297872E-3,3.0309114E-1,2.103597E-2,1.5E-3,-7.768728E-2,-1.8055657E-1,3.2258064E-2,-2.7423596E-1,6.6225166E-3,-2.5579743E-2,2.9109854E-1,-3.0165744E-1,6.2539085E-4,2.3699768E-1,3.3142984E-2,2.4915454E-1,4.032258E-3,-2.9544252E-1,1.8115728E-1,-1.8445858E-1,1.2845139E-1],"split_indices":[94,77,77,64,71,64,83,0,0,0,70,93,96,71,82,0,0,82,0,0,10,0,24,0,0,0,83,0,0,0,61,0,0,0,0],"split_type":[0,0,0,0,0,0,0,0,0,0,0,0,0,0,0,0,0,0,0,0,0,0,0,0,0,0,0,0,0,0,0,0,0,0,0],"sum_hessian":[2.0016929E3,7.081779E1,1.9308751E3,1.0806777E1,6.001101E1,1.8962406E3,3.463449E1,7.6356196E0,3.1711571E0,1.3319979E0,5.8679012E1,1.8912495E3,4.991111E0,1.7241234E1,1.739326E1,5.730242E1,1.3765899E0,1.8895853E3,1.6641977E0,1.3089548E0,3.6821556E0,9.552504E0,7.68873E0,1.4298052E0,1.5963454E1,1.8392817E3,5.030362E1,2.6764028E0,1.0057528E0,3.257288E0,4.431442E0,4.599984E1,4.303777E0,2.5426564E0,1.8887852E0],"tree_param":{"num_deleted":"0","num_feature":"97","num_nodes":"35","size_leaf_vector":"1"}},{"base_weights":[-9.08881E-1,-9.987504E-1,2.2909212E-1,-1.0003965E0,1.6922937E-1,-7.073726E-1,9.6998817E-1,-1.001899E0,6.558569E-2,7.1370757E-1,-9.248535E-1,-7.197323E-2,1.0091507E0,-1.0026118E0,-6.5417916E-2,2.5529504E-1,-1.570075E-2,-9.801799E-1,9.6868806E-2,9.174994E-2,3.056808E-1,-3.3697662E-1,-3.010075E-1,-2.9806378E-1,-6.668875E-2,1.1282794E-2,-1.614337E-1],"categories":[],"categories_nodes":[],"categories_segments":[],"categories_sizes":[],"default_left":[0,0,0,0,0,0,0,0,0,0,0,0,0,0,0,0,0,0,0,0,0,0,0,0,0,0,0],"id":11,"left_children":[1,3,5,7,-1,9,11,13,-1,15,17,-1,19,21,-1,-1,-1,23,-1,-1,-1,25,-1,-1,-1,-1,-1],"loss_changes":[1.5281812E2,4.1223145E0,7.70207E1,2.750122E0,0E0,1.585787E1,3.1725197E0,5.526123E-1,0E0,7.902441E-1,3.2906914E0,0E0,1.0198593E-1,3.470459E-1,0E0,0E0,0E0,1.9954681E-1,0E0,0E0,0E0,2.5006932E-1,0E0,0E0,0E0,0E0,0E0],"parents":[2147483647,0,0,1,1,2,2,3,3,5,5,6,6,7,7,9,9,10,10,12,12,13,13,17,17,21,21],"right_children":[2,4,6,8,-1,10,12,14,-1,16,18,-1,20,22,-1,-1,-1,24,-1,-1,-1,26,-1,-1,-1,-1,-1],"split_conditions":[9.0198434E-4,2.5411913E-1,6.2539085E-4,2.8910303E-2,1.6922937E-1,1.9950125E-2,6.455778E-4,1.8921476E-3,6.558569E-2,2.5062656E-2,2.1276595E-2,-7.197323E-2,9.049774E-4,5.4945056E-3,-6.5417916E-2,2.5529504E-1,-1.570075E-2,2.3923444E-3,9.6868806E-2,9.174994E-2,3.056808E-1,3.7171353E-2,-3.010075E-1,-2.9806378E-1,-6.668875E-2,1.1282794E-2,-1.614337E-1],"split_indices":[82,64,83,71,0,17,71,93,0,22,71,0,77,12,0,0,0,84,0,0,0,9,0,0,0,0,0],"split_type":[0,0,0,0,0,0,0,0,0,0,0,0,0,0,0,0,0,0,0,0,0,0,0,0,0,0,0],"sum_hessian":[1.4910406E3,1.3820205E3,1.0902021E2,1.3809258E3,1.0946156E0,4.817459E1,6.084562E1,1.3794037E3,1.5221266E0,6.091215E0,4.2083374E1,1.7470126E0,5.909861E1,1.3778717E3,1.5320016E0,5.0715127E0,1.0197024E0,4.0501923E1,1.5814527E0,1.2535553E0,5.7845055E1,2.0504823E0,1.3758213E3,3.9494453E1,1.0074712E0,1.0003994E0,1.050083E0],"tree_param":{"num_deleted":"0","num_feature":"97","num_nodes":"27","size_leaf_vector":"1"}},{"base_weights":[-9.0400517E-1,-9.957454E-1,2.228839E-1,-9.988771E-1,7.975247E-2,-6.7642725E-1,9.4337356E-1,-1.0008464E0,1.9105833E-2,-1.7881721E-1,2.008758E-1,5.838719E-1,-9.131427E-1,-5.8652077E-2,9.909119E-1,-3.0054277E-1,-5.6007862E-2,2.2838846E-1,-2.5722263E-2,-2.9252324E-1,9.335907E-2,7.862288E-2,3.0141646E-1],"categories":[],"categories_nodes":[],"categories_segments":[],"categories_sizes":[],"default_left":[0,0,0,0,0,0,0,0,0,0,0,0,0,0,0,0,0,0,0,0,0,0,0],"id":12,"left_children":[1,3,5,7,9,11,13,15,-1,-1,-1,17,19,-1,21,-1,-1,-1,-1,-1,-1,-1,-1],"loss_changes":[1.15086365E2,3.5407715E0,5.5363937E1,2.2078857E0,1.957551E0,1.1914717E1,2.7551193E0,6.1486816E-1,0E0,0E0,0E0,8.54439E-1,2.7684994E0,0E0,1.9543839E-1,0E0,0E0,0E0,0E0,0E0,0E0,0E0,0E0],"parents":[2147483647,0,0,1,1,2,2,3,3,4,4,5,5,6,6,7,7,11,11,12,12,14,14],"right_children":[2,4,6,8,10,12,14,16,-1,-1,-1,18,20,-1,22,-1,-1,-1,-1,-1,-1,-1,-1],"split_conditions":[9.0198434E-4,8.3402835E-4,6.2539085E-4,2.5720164E-2,8E2,2.1052632E-2,6.455778E-4,1.8921476E-3,1.9105833E-2,-1.7881721E-1,2.008758E-1,7.633588E-3,2.1276595E-2,-5.8652077E-2,9.049774E-4,-3.0054277E-1,-5.6007862E-2,2.2838846E-1,-2.5722263E-2,-2.9252324E-1,9.335907E-2,7.862288E-2,3.0141646E-1],"split_indices":[82,64,83,71,96,17,71,93,0,0,0,3,71,0,77,0,0,0,0,0,0,0,0],"split_type":[0,0,0,0,0,0,0,0,0,0,0,0,0,0,0,0,0,0,0,0,0,0,0],"sum_hessian":[1.110077E3,1.0266163E3,8.346066E1,1.02370667E3,2.909633E0,3.715062E1,4.631004E1,1.0218709E3,1.8358021E0,1.351072E0,1.558561E0,5.6425424E0,3.1508078E1,1.7308694E0,4.457917E1,1.02043353E3,1.4373481E0,4.3523974E0,1.2901448E0,3.0184736E1,1.3233423E0,1.2004435E0,4.3378727E1],"tree_param":{"num_deleted":"0","num_feature":"97","num_nodes":"23","size_leaf_vector":"1"}},{"base_weights":[-8.9833415E-1,-9.926499E-1,2.163867E-1,-9.961843E-1,7.095678E-2,-6.370048E-1,9.137908E-1,-9.9877626E-1,2.7830588E-2,-1.650481E-1,1.842008E-1,5.8859944E-1,-8.665001E-1,-4.771286E-2,9.715841E-1,-1.0000721E0,-4.7867365E-2,2.281164E-1,-9.42659E-3,-9.458397E-1,7.444013E-2,6.721287E-2,2.9722846E-1,-9.5648944E-2,-3.0025452E-1,-2.9151624E-1,-5.375046E-2],"categories":[],"categories_nodes":[],"categories_segments":[],"categories_sizes":[],"default_left":[0,0,0,0,0,0,0,0,0,0,0,0,0,0,0,0,0,0,0,0,0,0,0,0,0,0,0],"id":13,"left_children":[1,3,5,7,9,11,13,15,-1,-1,-1,17,19,-1,21,23,-1,-1,-1,25,-1,-1,-1,-1,-1,-1,-1],"loss_changes":[8.72832E1,2.9417114E0,3.9519993E1,2.241455E0,1.5058553E0,8.951248E0,2.412243E0,6.665039E-1,0E0,0E0,0E0,5.9147465E-1,2.5059013E0,0E0,2.7537537E-1,8.178711E-2,0E0,0E0,0E0,3.057537E-1,0E0,0E0,0E0,0E0,0E0,0E0,0E0],"parents":[2147483647,0,0,1,1,2,2,3,3,4,4,5,5,6,6,7,7,11,11,12,12,14,14,15,15,19,19],"right_children":[2,4,6,8,10,12,14,16,-1,-1,-1,18,20,-1,22,24,-1,-1,-1,26,-1,-1,-1,-1,-1,-1,-1],"split_conditions":[9.0198434E-4,8.3402835E-4,6.2539085E-4,2.5477707E-2,8E2,1.847575E-2,6.455778E-4,1.8921476E-3,2.7830588E-2,-1.650481E-1,1.842008E-1,2.5929127E-2,2.1276595E-2,-4.771286E-2,9.049774E-4,5.4945056E-3,-4.7867365E-2,2.281164E-1,-9.42659E-3,1.0695187E-2,7.444013E-2,6.721287E-2,2.9722846E-1,-9.5648944E-2,-3.0025452E-1,-2.9151624E-1,-5.375046E-2],"split_indices":[82,64,83,77,96,17,71,93,0,0,0,26,71,0,77,12,0,0,0,62,0,0,0,0,0,0,0],"split_type":[0,0,0,0,0,0,0,0,0,0,0,0,0,0,0,0,0,0,0,0,0,0,0,0,0,0,0],"sum_hessian":[8.271527E2,7.6272833E2,6.44244E1,7.602653E2,2.4630082E0,2.9011074E1,3.541333E1,7.585426E2,1.7227118E0,1.1428057E0,1.3202026E0,4.3287764E0,2.4682297E1,1.7206395E0,3.369269E1,7.571817E2,1.3608594E0,3.212346E0,1.1164303E0,2.3183527E1,1.498769E0,1.1599537E0,3.2532738E1,1.3303864E0,7.558513E2,2.2167742E1,1.0157856E0],"tree_param":{"num_deleted":"0","num_feature":"97","num_nodes":"27","size_leaf_vector":"1"}},{"base_weights":[-8.9166254E-1,-9.891836E-1,2.0838645E-1,-9.944877E-1,-4.941942E-2,-5.9453136E-1,8.7994087E-1,-9.975184E-1,-1.199668E-2,1.617033E-1,-1.8011363E-1,3.2976127E-1,-9.0920466E-1,-3.876761E-2,9.499706E-1,-9.992676E-1,-4.085704E-2,6.087449E-1,-7.550657E-2,-2.8336766E-1,-6.2461592E-2,5.735864E-2,2.92843E-1,-3.0003166E-1,-8.080005E-2,2.183583E-1,2.693151E-2],"categories":[],"categories_nodes":[],"categories_segments":[],"categories_sizes":[],"default_left":[0,0,0,0,0,0,0,0,0,0,0,0,0,0,0,0,0,0,0,0,0,0,0,0,0,0,0],"id":14,"left_children":[1,3,5,7,9,11,13,15,-1,-1,-1,17,19,-1,21,23,-1,25,-1,-1,-1,-1,-1,-1,-1,-1,-1],"loss_changes":[6.6519806E1,2.7820435E0,2.8110567E1,1.593811E0,1.6982409E0,7.250943E0,2.120222E0,7.1203613E-1,0E0,0E0,0E0,1.2568936E0,2.5180435E-1,0E0,3.4061813E-1,7.4157715E-2,0E0,2.369659E-1,0E0,0E0,0E0,0E0,0E0,0E0,0E0,0E0,0E0],"parents":[2147483647,0,0,1,1,2,2,3,3,4,4,5,5,6,6,7,7,11,11,12,12,14,14,15,15,17,17],"right_children":[2,4,6,8,10,12,14,16,-1,-1,-1,18,20,-1,22,24,-1,26,-1,-1,-1,-1,-1,-1,-1,-1,-1],"split_conditions":[9.0198434E-4,1.6064256E-2,6.2539085E-4,8.3402835E-4,2.2058824E-2,3.2608695E-2,6.455778E-4,1.8921476E-3,-1.199668E-2,1.617033E-1,-1.8011363E-1,9.689922E-3,1.5873017E-2,-3.876761E-2,9.049774E-4,5.882353E-2,-4.085704E-2,2.5316456E-2,-7.550657E-2,-2.8336766E-1,-6.2461592E-2,5.735864E-2,2.92843E-1,-3.0003166E-1,-8.080005E-2,2.183583E-1,2.693151E-2],"split_indices":[82,71,83,64,12,6,71,93,0,0,0,32,77,0,77,60,0,17,0,0,0,0,0,0,0,0,0],"split_type":[0,0,0,0,0,0,0,0,0,0,0,0,0,0,0,0,0,0,0,0,0,0,0,0,0,0,0],"sum_hessian":[6.1714813E2,5.669848E2,5.0163315E1,5.6374475E2,3.2400517E0,2.2899324E1,2.7263988E1,5.619155E2,1.8292342E0,1.5772347E0,1.662817E0,5.803806E0,1.7095518E1,1.7143271E0,2.5549662E1,5.606169E2,1.2986487E0,3.8902793E0,1.9135264E0,1.5943955E1,1.1515632E0,1.1288278E0,2.4420835E1,5.596044E2,1.012504E0,2.836693E0,1.0535862E0],"tree_param":{"num_deleted":"0","num_feature":"97","num_nodes":"27","size_leaf_vector":"1"}},{"base_weights":[-8.831031E-1,-9.8484784E-1,1.966547E-1,-9.9059045E-1,4.6194464E-2,-5.465134E-1,8.4076744E-1,-9.954824E-1,8.234245E-3,1.672199E-1,-1.373927E-1,-7.6741785E-1,1.937944E-1,9.177866E-1,-5.5995725E-2,-9.97833E-1,-3.362981E-2,1.3001038E-1,-2.836862E-1,2.8650638E-1,4.1429386E-2,-2.9971027E-1,-9.146786E-2],"categories":[],"categories_nodes":[],"categories_segments":[],"categories_sizes":[],"default_left":[0,0,0,0,0,0,0,0,0,0,0,0,0,0,0,0,0,0,0,0,0,0,0],"id":15,"left_children":[1,3,5,7,9,11,13,15,-1,-1,-1,17,-1,19,-1,21,-1,-1,-1,-1,-1,-1,-1],"loss_changes":[5.1014954E1,2.5498962E0,1.9927746E1,2.1221924E0,1.1052842E0,5.629741E0,1.9265194E0,7.574463E-1,0E0,0E0,0E0,4.0261745E0,0E0,4.7206497E-1,0E0,4.2816162E-2,0E0,0E0,0E0,0E0,0E0,0E0,0E0],"parents":[2147483647,0,0,1,1,2,2,3,3,4,4,5,5,6,6,7,7,11,11,13,13,15,15],"right_children":[2,4,6,8,10,12,14,16,-1,-1,-1,18,-1,20,-1,22,-1,-1,-1,-1,-1,-1,-1],"split_conditions":[9.0198434E-4,1.724138E-2,6.2539085E-4,8.3402835E-4,2.2058824E-2,2.8910303E-2,2.2222223E-2,1.8921476E-3,8.234245E-3,1.672199E-1,-1.373927E-1,4.9477736E-3,1.937944E-1,1.3840831E-2,-5.5995725E-2,4.587156E-2,-3.362981E-2,1.3001038E-1,-2.836862E-1,2.8650638E-1,4.1429386E-2,-2.9971027E-1,-9.146786E-2],"split_indices":[82,77,83,64,12,71,52,93,0,0,0,82,0,30,0,53,0,0,0,0,0,0,0],"split_type":[0,0,0,0,0,0,0,0,0,0,0,0,0,0,0,0,0,0,0,0,0,0,0],"sum_hessian":[4.616016E2,4.2193124E2,3.9670364E1,4.1963324E2,2.2980034E0,1.8489252E1,2.118111E1,4.1764847E2,1.9847643E0,1.0886172E0,1.2093862E0,1.5900258E1,2.5889935E0,1.9803291E1,1.3778201E0,4.1641086E2,1.2375994E0,1.869707E0,1.4030551E1,1.8686049E1,1.1172428E0,4.1524933E2,1.1615233E0],"tree_param":{"num_deleted":"0","num_feature":"97","num_nodes":"23","size_leaf_vector":"1"}},{"base_weights":[-8.732621E-1,5.6702304E-1,-9.5142496E-1,7.413212E-1,-1.4879782E-1,-9.8371524E-1,1.7839307E-1,8.6073285E-1,-6.9448136E-2,-9.893193E-1,1.09132975E-2,-1.9032861E-1,5.2036786E-1,1.6792985E-2,2.7517006E-1,-2.977279E-1,-1.9636732E-2,-5.9885494E-2,6.6705036E-1,-1.2512448E-2,2.4602666E-1],"categories":[],"categories_nodes":[],"categories_segments":[],"categories_sizes":[],"default_left":[0,0,0,0,0,0,0,0,0,0,0,0,0,0,0,0,0,0,0,0,0],"id":16,"left_children":[1,3,5,7,-1,9,11,13,-1,15,-1,-1,17,-1,-1,-1,-1,-1,19,-1,-1],"loss_changes":[3.956131E1,3.7896967E0,1.2183716E1,2.089075E0,0E0,1.866272E0,3.107656E0,6.171322E-1,0E0,8.491516E-1,0E0,0E0,9.339552E-1,0E0,0E0,0E0,0E0,0E0,7.424562E-1,0E0,0E0],"parents":[2147483647,0,0,1,1,2,2,3,3,5,5,6,6,7,7,9,9,12,12,18,18],"right_children":[2,4,6,8,-1,10,12,14,-1,16,-1,-1,18,-1,-1,-1,-1,-1,20,-1,-1],"split_conditions":[6.730769E-1,4.109589E-2,1.0256411E-2,2.425876E-2,-1.4879782E-1,8.3402835E-4,1.0989011E-3,1.49E2,-6.9448136E-2,1.25E-1,1.09132975E-2,-1.9032861E-1,6.756757E-3,1.6792985E-2,2.7517006E-1,-2.977279E-1,-1.9636732E-2,-5.9885494E-2,1.1029412E-2,-1.2512448E-2,2.4602666E-1],"split_indices":[94,5,77,18,0,64,43,96,0,9,0,0,71,0,0,0,0,0,49,0,0],"split_type":[0,0,0,0,0,0,0,0,0,0,0,0,0,0,0,0,0,0,0,0,0],"sum_hessian":[3.4562375E2,1.7469213E1,3.2815454E2,1.52683525E1,2.2008615E0,3.191622E2,8.992352E0,1.3701701E1,1.5666507E0,3.174484E2,1.7138044E0,2.4096918E0,6.5826597E0,1.0294633E0,1.2672238E1,3.163104E2,1.1379807E0,1.0530266E0,5.529633E0,1.1111398E0,4.4184933E0],"tree_param":{"num_deleted":"0","num_feature":"97","num_nodes":"21","size_leaf_vector":"1"}},{"base_weights":[-8.5738015E-1,-9.755574E-1,2.1935949E-1,-9.841646E-1,-1.9768523E-2,-4.635223E-1,7.900584E-1,-9.918293E-1,-1.4167778E-1,1.2200134E-1,-1.3554311E-1,2.6894873E-1,-8.276121E-1,-5.3349502E-2,8.910194E-1,-4.5268975E-2,-2.9888883E-1,1.2150795E-1,-1.6820265E-1,1.7338854E-1,-4.428365E-2,-2.6186788E-1,-7.391332E-2,2.8002378E-1,5.421402E-2],"categories":[],"categories_nodes":[],"categories_segments":[],"categories_sizes":[],"default_left":[0,0,0,0,0,0,0,0,0,0,0,0,0,0,0,0,0,0,0,0,0,0,0,0,0],"id":17,"left_children":[1,3,5,7,9,11,13,15,17,-1,-1,19,21,-1,23,-1,-1,-1,-1,-1,-1,-1,-1,-1,-1],"loss_changes":[3.349829E1,1.9211273E0,1.0766313E1,1.3689575E0,7.5963473E-1,3.6306155E0,1.615138E0,7.191925E-1,9.770972E-1,0E0,0E0,7.2864544E-1,1.6054153E-2,0E0,2.4281025E-1,0E0,0E0,0E0,0E0,0E0,0E0,0E0,0E0,0E0,0E0],"parents":[2147483647,0,0,1,1,2,2,3,3,4,4,5,5,6,6,7,7,8,8,11,11,12,12,14,14],"right_children":[2,4,6,8,10,12,14,16,18,-1,-1,20,22,-1,24,-1,-1,-1,-1,-1,-1,-1,-1,-1,-1],"split_conditions":[9.0198434E-4,1.6064256E-2,6.2539085E-4,1.25E-1,2.3529412E-2,3.2967035E-2,6.455778E-4,6.666667E-1,3.6764707E-2,1.2200134E-1,-1.3554311E-1,1.9950125E-2,1.5873017E-2,-5.3349502E-2,1.3245033E-2,-4.5268975E-2,-2.9888883E-1,1.2150795E-1,-1.6820265E-1,1.7338854E-1,-4.428365E-2,-2.6186788E-1,-7.391332E-2,2.8002378E-1,5.421402E-2],"split_indices":[82,71,83,9,11,6,71,94,12,0,0,17,71,0,30,0,0,0,0,0,0,0,0,0,0],"split_type":[0,0,0,0,0,0,0,0,0,0,0,0,0,0,0,0,0,0,0,0,0,0,0,0,0],"sum_hessian":[2.6057425E2,2.3488815E2,2.5686098E1,2.3276236E2,2.1257992E0,1.1779222E1,1.3906877E1,2.3048819E2,2.2741773E0,1.0993887E0,1.0264106E0,3.9978046E0,7.7814174E0,1.2416894E0,1.2665187E1,1.401582E0,2.2908661E2,1.001185E0,1.2729923E0,2.0727427E0,1.9250618E0,6.7534976E0,1.0279195E0,1.1655454E1,1.0097328E0],"tree_param":{"num_deleted":"0","num_feature":"97","num_nodes":"25","size_leaf_vector":"1"}},{"base_weights":[-8.424311E-1,-9.6771485E-1,1.992059E-1,-2.8390807E-1,-9.8588663E-1,-4.1488367E-1,7.394092E-1,-2.2192805E-1,2.719834E-1,-2.9784563E-1,-1.4367557E-2,-6.708986E-1,1.6453421E-1,-4.473539E-2,8.539586E-1,9.447457E-2,-2.6331496E-1,2.7234292E-1,4.8889574E-2],"categories":[],"categories_nodes":[],"categories_segments":[],"categories_sizes":[],"default_left":[0,0,0,0,0,0,0,0,0,0,0,0,0,0,0,0,0,0,0],"id":18,"left_children":[1,3,5,7,9,11,13,-1,-1,-1,-1,15,-1,-1,17,-1,-1,-1,-1],"loss_changes":[2.5967987E1,1.9129944E0,7.6163754E0,3.9121192E0,1.0676117E0,3.0691743E0,1.3570433E0,0E0,0E0,0E0,0E0,2.1323233E0,0E0,0E0,2.558279E-1,0E0,0E0,0E0,0E0],"parents":[2147483647,0,0,1,1,2,2,3,3,4,4,5,5,6,6,11,11,14,14],"right_children":[2,4,6,8,10,12,14,-1,-1,-1,-1,16,-1,-1,18,-1,-1,-1,-1],"split_conditions":[9.0198434E-4,6.770428E-1,6.2539085E-4,9.3E2,1.724138E-2,2.8910303E-2,6.455778E-4,-2.2192805E-1,2.719834E-1,-2.9784563E-1,-1.4367557E-2,4.9477736E-3,1.6453421E-1,-4.473539E-2,1.3157895E-2,9.447457E-2,-2.6331496E-1,2.7234292E-1,4.8889574E-2],"split_indices":[82,94,83,96,77,71,71,0,0,0,0,82,0,0,30,0,0,0,0],"split_type":[0,0,0,0,0,0,0,0,0,0,0,0,0,0,0,0,0,0,0],"sum_hessian":[1.9651103E2,1.7547644E2,2.1034594E1,4.9728036E0,1.7050365E2,9.952654E0,1.1081941E1,3.8697093E0,1.1030945E0,1.691948E2,1.3088505E0,8.102813E0,1.8498405E0,1.2310735E0,9.850867E0,1.3144957E0,6.7883177E0,8.847575E0,1.003292E0],"tree_param":{"num_deleted":"0","num_feature":"97","num_nodes":"19","size_leaf_vector":"1"}},{"base_weights":[-8.253476E-1,-9.586496E-1,1.9041257E-1,-9.7272664E-1,8.530065E-3,6.1385494E-1,-5.0353754E-1,-9.857094E-1,-1.8737405E-3,7.9542226E-1,-2.1827433E-2,-7.10251E-1,6.521672E-2,-3.965684E-2,-2.9765743E-1,2.563253E-1,4.8425548E-2,-1.1791352E-1,1.1153847E-1,-2.4166697E-1,-5.70141E-2],"categories":[],"categories_nodes":[],"categories_segments":[],"categories_sizes":[],"default_left":[0,0,0,0,0,0,0,0,0,0,0,0,0,0,0,0,0,0,0,0,0],"id":19,"left_children":[1,3,5,7,-1,9,11,13,-1,15,17,19,-1,-1,-1,-1,-1,-1,-1,-1,-1],"loss_changes":[2.0394325E1,1.8634949E0,5.6427855E0,1.6287003E0,0E0,1.3704581E0,1.2613395E0,5.800705E-1,0E0,2.0415115E-1,6.6892546E-1,1.4472318E-1,0E0,0E0,0E0,0E0,0E0,0E0,0E0,0E0,0E0],"parents":[2147483647,0,0,1,1,2,2,3,3,5,5,6,6,7,7,9,9,10,10,11,11],"right_children":[2,4,6,8,-1,10,12,14,-1,16,18,20,-1,-1,-1,-1,-1,-1,-1,-1,-1],"split_conditions":[9.0198434E-4,1.6064256E-2,3.1578947E-2,1.25E-1,8.530065E-3,3.076923E-2,1.5873017E-2,6.666667E-1,-1.8737405E-3,1.4245015E-2,6.2539085E-4,1.3197587E-3,6.521672E-2,-3.965684E-2,-2.9765743E-1,2.563253E-1,4.8425548E-2,-1.1791352E-1,1.1153847E-1,-2.4166697E-1,-5.70141E-2],"split_indices":[82,71,12,9,0,17,77,94,0,31,83,74,0,0,0,0,0,0,0,0,0],"split_type":[0,0,0,0,0,0,0,0,0,0,0,0,0,0,0,0,0,0,0,0,0],"sum_hessian":[1.4827151E2,1.3112033E2,1.7151182E1,1.2929103E2,1.8293113E0,1.0723321E1,6.42786E0,1.2755764E2,1.7333854E0,8.145474E0,2.5778468E0,5.0069966E0,1.4208633E0,1.1226579E0,1.2643498E2,7.133988E0,1.0114866E0,1.3274349E0,1.2504117E0,3.768109E0,1.2388875E0],"tree_param":{"num_deleted":"0","num_feature":"97","num_nodes":"21","size_leaf_vector":"1"}},{"base_weights":[-8.009705E-1,2.3828216E-1,-9.3569404E-1,7.877079E-1,-3.707608E-1,-9.780338E-1,9.476748E-2,1.133779E-1,3.0225772E-1,-2.4418543E-1,2.859149E-1,-9.8320395E-1,-8.590645E-2,-1.2822017E-1,1.6016793E-1,7.5442605E-2,-2.4468826E-2,-4.4859756E-2,1.7387411E-1,-2.9627365E-1,-8.5810326E-2],"categories":[],"categories_nodes":[],"categories_segments":[],"categories_sizes":[],"default_left":[0,0,0,0,0,0,0,0,0,0,0,0,0,0,0,0,0,0,0,0,0],"id":20,"left_children":[1,3,5,7,9,11,13,15,-1,-1,17,19,-1,-1,-1,-1,-1,-1,-1,-1,-1],"loss_changes":[1.6213837E1,4.9445596E0,4.51268E0,1.0167103E0,2.3497047E0,6.674957E-2,1.3540152E0,1.013401E-1,0E0,0E0,5.561137E-1,1.1138916E-2,0E0,0E0,0E0,0E0,0E0,0E0,0E0,0E0,0E0],"parents":[2147483647,0,0,1,1,2,2,3,3,4,4,5,5,6,6,7,7,10,10,11,11],"right_children":[2,4,6,8,10,12,14,16,-1,-1,18,20,-1,-1,-1,-1,-1,-1,-1,-1,-1],"split_conditions":[7.0430106E-1,1.8867925E-2,8.928572E-3,1.0989011E-3,9.0198434E-4,5.7803467E-3,3.22E2,2.8169013E-3,3.0225772E-1,-2.4418543E-1,1.5873017E-2,8.064516E-3,-8.590645E-2,-1.2822017E-1,1.6016793E-1,7.5442605E-2,-2.4468826E-2,-4.4859756E-2,1.7387411E-1,-2.9627365E-1,-8.5810326E-2],"split_indices":[94,19,77,66,82,72,96,0,0,0,71,77,0,0,0,0,0,0,0,0,0],"split_type":[0,0,0,0,0,0,0,0,0,0,0,0,0,0,0,0,0,0,0,0,0],"sum_hessian":[1.1321102E2,1.2903695E1,1.0030733E2,6.6296477E0,6.274047E0,9.6397415E1,3.9099085E0,2.0024767E0,4.627171E0,3.6029274E0,2.6711197E0,9.526386E1,1.1335562E0,1.7982707E0,2.1116378E0,1.0023762E0,1.0001005E0,1.273532E0,1.3975877E0,9.425583E1,1.0080272E0],"tree_param":{"num_deleted":"0","num_feature":"97","num_nodes":"21","size_leaf_vector":"1"}},{"base_weights":[-7.747125E-1,-9.339352E-1,1.7459992E-1,-1.1143348E-1,-9.6584433E-1,-3.6213535E-1,6.53812E-1,2.0536894E-1,-1.9524567E-1,-2.9443905E-1,-1.3795276E-3,-5.914361E-1,1.1862639E-1,-6.6663967E-3,2.4276412E-1,-2.383913E-1,5.621071E-2],"categories":[],"categories_nodes":[],"categories_segments":[],"categories_sizes":[],"default_left":[0,0,0,0,0,0,0,0,0,0,0,0,0,0,0,0,0],"id":21,"left_children":[1,3,5,7,9,11,13,-1,-1,-1,-1,15,-1,-1,-1,-1,-1],"loss_changes":[1.3402966E1,1.8652115E0,3.6895077E0,2.1361854E0,1.0799637E0,1.4455557E0,8.004849E-1,0E0,0E0,0E0,0E0,1.0596983E0,0E0,0E0,0E0,0E0,0E0],"parents":[2147483647,0,0,1,1,2,2,3,3,4,4,5,5,6,6,11,11],"right_children":[2,4,6,8,10,12,14,-1,-1,-1,-1,16,-1,-1,-1,-1,-1],"split_conditions":[9.0198434E-4,6.770428E-1,6.2539085E-4,1.4778325E-2,1.724138E-2,2.8910303E-2,6.1500614E-4,2.0536894E-1,-1.9524567E-1,-2.9443905E-1,-1.3795276E-3,4.03E2,1.1862639E-1,-6.6663967E-3,2.4276412E-1,-2.383913E-1,5.621071E-2],"split_indices":[82,94,83,19,77,71,76,0,0,0,0,96,0,0,0,0,0],"split_type":[0,0,0,0,0,0,0,0,0,0,0,0,0,0,0,0,0],"sum_hessian":[8.659323E1,7.416942E1,1.2423812E1,2.937727E0,7.12317E1,5.9754252E0,6.4483867E0,1.0778857E0,1.8598411E0,7.0072075E1,1.1596184E0,4.7553415E0,1.2200838E0,1.3654352E0,5.0829515E0,3.7552207E0,1.0001208E0],"tree_param":{"num_deleted":"0","num_feature":"97","num_nodes":"17","size_leaf_vector":"1"}},{"base_weights":[-7.459213E-1,2.3763952E-1,-9.0469795E-1,-2.739656E-1,8.2163817E-1,-9.6232027E-1,7.4554525E-2,-1.9239828E-1,2.8258023E-1,2.9712912E-1,2.2940338E-2,-2.9436734E-1,-4.6583247E-1,-1.06921315E-1,1.3325705E-1,-1.7645787E-2,1.4217122E-1,1.4460272E-2,-1.991156E-1],"categories":[],"categories_nodes":[],"categories_segments":[],"categories_sizes":[],"default_left":[0,0,0,0,0,0,0,0,0,0,0,0,0,0,0,0,0,0,0],"id":22,"left_children":[1,3,5,7,9,11,13,-1,15,-1,-1,-1,17,-1,-1,-1,-1,-1,-1],"loss_changes":[1.0755344E1,3.264614E0,3.3626213E0,1.4432462E0,5.532286E-1,6.0554504E-2,8.224527E-1,0E0,2.3352778E-1,0E0,0E0,0E0,4.3142378E-1,0E0,0E0,0E0,0E0,0E0,0E0],"parents":[2147483647,0,0,1,1,2,2,3,3,4,4,5,5,6,6,8,8,12,12],"right_children":[2,4,6,8,10,12,14,-1,16,-1,-1,-1,18,-1,-1,-1,-1,-1,-1],"split_conditions":[7.0430106E-1,1.0989011E-3,8.928572E-3,1.5873017E-2,1.858736E-2,1.5E-3,3.22E2,-1.9239828E-1,4.237288E-3,2.9712912E-1,2.2940338E-2,-2.9436734E-1,7.246377E-3,-1.06921315E-1,1.3325705E-1,-1.7645787E-2,1.4217122E-1,1.4460272E-2,-1.991156E-1],"split_indices":[94,66,77,77,19,82,96,0,43,0,0,0,82,0,0,0,0,0,0],"split_type":[0,0,0,0,0,0,0,0,0,0,0,0,0,0,0,0,0,0,0],"sum_hessian":[6.6494354E1,9.173195E0,5.7321156E1,5.172642E0,4.000552E0,5.4151974E1,3.1691833E0,3.0241446E0,2.1484976E0,2.9933753E0,1.0071769E0,5.12252E1,2.9267745E0,1.479743E0,1.6894403E0,1.0203482E0,1.1281495E0,1.0237862E0,1.9029882E0],"tree_param":{"num_deleted":"0","num_feature":"97","num_nodes":"19","size_leaf_vector":"1"}},{"base_weights":[-7.106066E-1,-8.989116E-1,1.565299E-1,-9.364134E-1,6.330638E-3,-3.0186248E-1,5.646868E-1,-2.8939888E-1,-1.9705363E-4,6.0476292E-2,-1.9178835E-1,-1.527409E-2,2.2102472E-1],"categories":[],"categories_nodes":[],"categories_segments":[],"categories_sizes":[],"default_left":[0,0,0,0,0,0,0,0,0,0,0,0,0],"id":23,"left_children":[1,3,5,7,-1,9,11,-1,-1,-1,-1,-1,-1],"loss_changes":[8.7369175E0,1.5171852E0,2.0871217E0,1.1022987E0,0E0,1.0592821E0,6.4840615E-1,0E0,0E0,0E0,0E0,0E0,0E0],"parents":[2147483647,0,0,1,1,2,2,3,3,5,5,6,6],"right_children":[2,4,6,8,-1,10,12,-1,-1,-1,-1,-1,-1],"split_conditions":[9.0198434E-4,3.6621094E-4,6.2539085E-4,1.724138E-2,6.330638E-3,3.2967035E-2,6.1500614E-4,-2.8939888E-1,-1.9705363E-4,6.0476292E-2,-1.9178835E-1,-1.527409E-2,2.2102472E-1],"split_indices":[82,85,83,77,0,6,76,0,0,0,0,0,0],"split_type":[0,0,0,0,0,0,0,0,0,0,0,0,0],"sum_hessian":[5.1645065E1,4.2400784E1,9.244282E0,4.0722996E1,1.6777872E0,4.4768505E0,4.7674313E0,3.9499653E1,1.2233434E0,1.9580355E0,2.518815E0,1.1952374E0,3.5721939E0],"tree_param":{"num_deleted":"0","num_feature":"97","num_nodes":"13","size_leaf_vector":"1"}},{"base_weights":[-6.6624606E-1,2.7486986E-1,-8.625338E-1,-2.527144E-1,7.680695E-1,-9.504251E-1,4.2659E-3,-1.7874642E-1,5.668582E-2,2.8984976E-1,3.713262E-2,-2.891184E-1,-8.263181E-2,-1.1808214E-1,1.2430477E-1],"categories":[],"categories_nodes":[],"categories_segments":[],"categories_sizes":[],"default_left":[0,0,0,0,0,0,0,0,0,0,0,0,0,0,0],"id":24,"left_children":[1,3,5,7,9,11,13,-1,-1,-1,-1,-1,-1,-1,-1],"loss_changes":[7.9568996E0,2.2679904E0,2.6567554E0,8.101632E-1,4.3777227E-1,1.8463135E-2,8.4854895E-1,0E0,0E0,0E0,0E0,0E0,0E0,0E0,0E0],"parents":[2147483647,0,0,1,1,2,2,3,3,4,4,5,5,6,6],"right_children":[2,4,6,8,10,12,14,-1,-1,-1,-1,-1,-1,-1,-1],"split_conditions":[7.0430106E-1,6.8259385E-4,8.064516E-3,1.14613185E-2,1.5151516E-2,3.937008E-3,3.22E2,-1.7874642E-1,5.668582E-2,2.8984976E-1,3.713262E-2,-2.891184E-1,-8.263181E-2,-1.1808214E-1,1.2430477E-1],"split_indices":[94,60,77,77,26,72,96,0,0,0,0,0,0,0,0],"split_type":[0,0,0,0,0,0,0,0,0,0,0,0,0,0,0],"sum_hessian":[4.0789833E1,6.9702277E0,3.3819607E1,3.6033084E0,3.366919E0,3.0618494E1,3.201113E0,1.8314934E0,1.7718151E0,2.193062E0,1.173857E0,2.9607204E1,1.0112883E0,1.6451374E0,1.5559757E0],"tree_param":{"num_deleted":"0","num_feature":"97","num_nodes":"15","size_leaf_vector":"1"}},{"base_weights":[-6.2111485E-1,-8.940679E-1,5.9063043E-2,4.2276315E-2,-2.845366E-1,-4.8396435E-1,4.23203E-1,2.3267195E-2,-1.9774856E-1,7.4647677E-1,-1.04515396E-1,2.537463E-1,5.159152E-2],"categories":[],"categories_nodes":[],"categories_segments":[],"categories_sizes":[],"default_left":[0,0,0,0,0,0,0,0,0,0,0,0,0],"id":25,"left_children":[1,3,5,-1,-1,7,9,-1,-1,11,-1,-1,-1],"loss_changes":[6.245635E0,1.4770775E0,2.2791786E0,0E0,0E0,5.11274E-1,1.959467E0,0E0,0E0,1.4673758E-1,0E0,0E0,0E0],"parents":[2147483647,0,0,1,1,2,2,5,5,6,6,9,9],"right_children":[2,4,6,-1,-1,8,10,-1,-1,12,-1,-1,-1],"split_conditions":[3.7974683E-3,1.3245033E-2,6.1500614E-4,4.2276315E-2,-2.845366E-1,2.625E-2,1.25E-2,2.3267195E-2,-1.9774856E-1,6.134969E-3,-1.04515396E-1,2.537463E-1,5.159152E-2],"split_indices":[71,12,76,0,0,13,50,0,0,41,0,0,0],"split_type":[0,0,0,0,0,0,0,0,0,0,0,0,0],"sum_hessian":[3.2356354E1,2.2865889E1,9.490465E0,1.0621526E0,2.1803738E1,3.6774175E0,5.813048E0,1.0070518E0,2.6703658E0,4.119596E0,1.6934519E0,3.1096165E0,1.0099794E0],"tree_param":{"num_deleted":"0","num_feature":"97","num_nodes":"13","size_leaf_vector":"1"}},{"base_weights":[-5.733626E-1,2.8029895E-1,-8.0275047E-1,-1.799578E-1,7.9176515E-1,-9.1266733E-1,-5.998699E-3,-1.5255603E-1,5.2422404E-2,2.8324482E-1,6.7580484E-2,-2.8303793E-1,-8.636703E-2,-1.0039713E-1,1.0091383E-1],"categories":[],"categories_nodes":[],"categories_segments":[],"categories_sizes":[],"default_left":[0,0,0,0,0,0,0,0,0,0,0,0,0,0,0],"id":26,"left_children":[1,3,5,7,9,11,13,-1,-1,-1,-1,-1,-1,-1,-1],"loss_changes":[5.5143137E0,1.6636994E0,1.881711E0,5.802104E-1,6.752157E-2,9.2570305E-2,5.1980543E-1,0E0,0E0,0E0,0E0,0E0,0E0,0E0,0E0],"parents":[2147483647,0,0,1,1,2,2,3,3,4,4,5,5,6,6],"right_children":[2,4,6,8,10,12,14,-1,-1,-1,-1,-1,-1,-1,-1],"split_conditions":[7.0430106E-1,1.0989011E-3,8.064516E-3,1.2004802E-3,1.5384615E-2,1.5E-3,3.27E2,-1.5255603E-1,5.2422404E-2,2.8324482E-1,6.7580484E-2,-2.8303793E-1,-8.636703E-2,-1.0039713E-1,1.0091383E-1],"split_indices":[94,66,77,82,22,82,96,0,0,0,0,0,0,0,0],"split_type":[0,0,0,0,0,0,0,0,0,0,0,0,0,0,0],"sum_hessian":[2.6011106E1,5.462097E0,2.054901E1,3.216129E0,2.245968E0,1.7929974E1,2.6190364E0,1.4444505E0,1.7716786E0,1.2445474E0,1.0014209E0,1.6601679E1,1.3282936E0,1.347798E0,1.2712383E0],"tree_param":{"num_deleted":"0","num_feature":"97","num_nodes":"15","size_leaf_vector":"1"}},{"base_weights":[-5.180815E-1,-8.688337E-1,6.020739E-2,-2.7672592E-1,-5.9777964E-2,-3.2066685E-1,5.6401026E-1,9.747842E-2,-5.538528E-1,2.360502E-1,1.4654251E-2,-1.9949876E-1,-2.4626968E-2],"categories":[],"categories_nodes":[],"categories_segments":[],"categories_sizes":[],"default_left":[0,0,0,0,0,0,0,0,0,0,0,0,0],"id":27,"left_children":[1,3,5,-1,-1,7,9,-1,11,-1,-1,-1,-1],"loss_changes":[4.5694313E0,3.158903E-1,1.973643E0,0E0,0E0,1.0769228E0,4.6490312E-1,0E0,1.9430506E-1,0E0,0E0,0E0,0E0],"parents":[2147483647,0,0,1,1,2,2,5,5,6,6,8,8],"right_children":[2,4,6,-1,-1,8,10,-1,12,-1,-1,-1,-1],"split_conditions":[1.9772614E-3,1.076E3,2.1978022E-4,-2.7672592E-1,-5.9777964E-2,1.9950125E-2,4.640371E-3,9.747842E-2,1.3978494E-2,2.360502E-1,1.4654251E-2,-1.9949876E-1,-2.4626968E-2],"split_indices":[71,96,84,0,0,17,59,0,49,0,0,0,0],"split_type":[0,0,0,0,0,0,0,0,0,0,0,0,0],"sum_hessian":[2.1269802E1,1.2926817E1,8.342984E0,1.1619302E1,1.3075154E0,4.9581428E0,3.3848414E0,1.2112542E0,3.7468884E0,1.9947153E0,1.3901262E0,2.7009673E0,1.0459211E0],"tree_param":{"num_deleted":"0","num_feature":"97","num_nodes":"13","size_leaf_vector":"1"}},{"base_weights":[-4.6445897E-1,2.8834006E-1,-7.2635216E-1,5.588125E-1,-1.1944E-1,-8.687566E-1,1.6048588E-2,7.7824765E-1,-2.4818249E-2,-2.7253726E-1,-6.764196E-2,-8.4895924E-2,8.966211E-2,6.844921E-2,2.7625397E-1],"categories":[],"categories_nodes":[],"categories_segments":[],"categories_sizes":[],"default_left":[0,0,0,0,0,0,0,0,0,0,0,0,0,0,0],"id":28,"left_children":[1,3,5,7,-1,9,11,13,-1,-1,-1,-1,-1,-1,-1],"loss_changes":[3.9028625E0,1.2531575E0,1.513361E0,6.83537E-1,0E0,9.954643E-2,3.606708E-1,5.450058E-2,0E0,0E0,0E0,0E0,0E0,0E0,0E0],"parents":[2147483647,0,0,1,1,2,2,3,3,5,5,6,6,7,7],"right_children":[2,4,6,8,-1,10,12,14,-1,-1,-1,-1,-1,-1,-1],"split_conditions":[7.0430106E-1,1.908397E-2,7.968128E-3,2.0689655E-2,-1.1944E-1,1.5E-3,1.3157895E-2,1.0989011E-3,-2.4818249E-2,-2.7253726E-1,-6.764196E-2,-8.4895924E-2,8.966211E-2,6.844921E-2,2.7625397E-1],"split_indices":[94,27,77,45,0,82,49,66,0,0,0,0,0,0,0],"split_type":[0,0,0,0,0,0,0,0,0,0,0,0,0,0,0],"sum_hessian":[1.7733812E1,4.5510526E0,1.3182759E1,3.3981416E0,1.1529108E0,1.0918262E1,2.2644978E0,2.373281E0,1.0248605E0,9.895341E0,1.02292E0,1.1004288E0,1.164069E0,1.0238314E0,1.3494496E0],"tree_param":{"num_deleted":"0","num_feature":"97","num_nodes":"15","size_leaf_vector":"1"}},{"base_weights":[-4.1140348E-1,-6.733429E-1,3.6261898E-1,-8.232698E-1,8.6302415E-2,-6.1668422E-2,2.2108477E-1,-2.6357463E-1,-4.8754588E-2],"categories":[],"categories_nodes":[],"categories_segments":[],"categories_sizes":[],"default_left":[0,0,0,0,0,0,0,0,0],"id":29,"left_children":[1,3,5,7,-1,-1,-1,-1,-1],"loss_changes":[3.4609306E0,1.9952564E0,1.1429518E0,2.5252676E-1,0E0,0E0,0E0,0E0,0E0],"parents":[2147483647,0,0,1,1,2,2,3,3],"right_children":[2,4,6,8,-1,-1,-1,-1,-1],"split_conditions":[1.0683761E-3,2.5720164E-2,6.1500614E-4,8.58E2,8.6302415E-2,-6.1668422E-2,2.2108477E-1,-2.6357463E-1,-4.8754588E-2],"split_indices":[68,71,76,96,0,0,0,0,0],"split_type":[0,0,0,0,0,0,0,0,0],"sum_hessian":[1.4865897E1,1.120429E1,3.6616068E0,9.816214E0,1.388077E0,1.6333174E0,2.0282893E0,8.753764E0,1.062449E0],"tree_param":{"num_deleted":"0","num_feature":"97","num_nodes":"9","size_leaf_vector":"1"}},{"base_weights":[-3.5994E-1,-6.18612E-1,3.5796607E-1,-7.6958114E-1,3.5408925E-2,6.056403E-1,-4.3686207E-2,-5.0175924E-2,-2.4974698E-1,4.1887242E-2,2.3018456E-1],"categories":[],"categories_nodes":[],"categories_segments":[],"categories_sizes":[],"default_left":[0,0,0,0,0,0,0,0,0,0,0],"id":30,"left_children":[1,3,5,7,-1,9,-1,-1,-1,-1,-1],"loss_changes":[2.73725E0,1.2391529E0,6.1476785E-1,1.9051313E-1,0E0,1.2064779E-1,0E0,0E0,0E0,0E0,0E0],"parents":[2147483647,0,0,1,1,2,2,3,3,5,5],"right_children":[2,4,6,8,-1,10,-1,-1,-1,-1,-1],"split_conditions":[2.5316456E-4,1.724138E-2,6.451613E-3,1.4563107E-2,3.5408925E-2,2.3148148E-3,-4.3686207E-2,-5.0175924E-2,-2.4974698E-1,4.1887242E-2,2.3018456E-1],"split_indices":[84,77,41,12,0,68,0,0,0,0,0],"split_type":[0,0,0,0,0,0,0,0,0,0,0],"sum_hessian":[1.254754E1,9.325674E0,3.2218654E0,7.7024083E0,1.6232656E0,2.0238442E0,1.198021E0,1.0743707E0,6.6280375E0,1.0011873E0,1.0226569E0],"tree_param":{"num_deleted":"0","num_feature":"97","num_nodes":"11","size_leaf_vector":"1"}},{"base_weights":[-3.0134112E-1,-7.3276997E-1,1.4391443E-1,-4.914068E-2,-2.432618E-1,-3.2452276E-1,4.289211E-1,-1.4695077E-1,3.7237366E-3,6.3575584E-1,-4.639526E-2,2.215642E-1,5.7336237E-2],"categories":[],"categories_nodes":[],"categories_segments":[],"categories_sizes":[],"default_left":[0,0,0,0,0,0,0,0,0,0,0,0,0],"id":31,"left_children":[1,3,5,-1,-1,7,9,-1,-1,11,-1,-1,-1],"loss_changes":[2.409783E0,1.4520717E-1,1.038916E0,0E0,0E0,1.7977941E-1,6.560409E-1,0E0,0E0,2.3711324E-2,0E0,0E0,0E0],"parents":[2147483647,0,0,1,1,2,2,5,5,6,6,9,9],"right_children":[2,4,6,-1,-1,8,10,-1,-1,12,-1,-1,-1],"split_conditions":[1.9772614E-3,3.6585364E-2,6.1500614E-4,-4.914068E-2,-2.432618E-1,1.3333333E-3,1.0178117E-2,-1.4695077E-1,3.7237366E-3,3.012048E-3,-4.639526E-2,2.215642E-1,5.7336237E-2],"split_indices":[71,1,76,0,0,77,50,0,0,41,0,0,0],"split_type":[0,0,0,0,0,0,0,0,0,0,0,0,0],"sum_hessian":[1.0995696E1,5.2566013E0,5.739095E0,1.0083286E0,4.248273E0,2.1184912E0,3.6206038E0,1.1167656E0,1.0017257E0,2.6071374E0,1.0134664E0,1.5806916E0,1.0264459E0],"tree_param":{"num_deleted":"0","num_feature":"97","num_nodes":"13","size_leaf_vector":"1"}},{"base_weights":[-2.6496154E-1,-5.3641564E-1,3.472272E-1,-6.9079286E-1,7.001203E-2,1.8750632E-1,-2.3652226E-2,-2.3778039E-1,-5.341109E-2],"categories":[],"categories_nodes":[],"categories_segments":[],"categories_sizes":[],"default_left":[0,0,0,0,0,0,0,0,0],"id":32,"left_children":[1,3,5,7,-1,-1,-1,-1,-1],"loss_changes":[1.9665408E0,1.0899146E0,5.106457E-1,2.1188068E-1,0E0,0E0,0E0,0E0,0E0],"parents":[2147483647,0,0,1,1,2,2,3,3],"right_children":[2,4,6,8,-1,-1,-1,-1,-1],"split_conditions":[1.0683761E-3,2.8910303E-2,4.347826E-3,5.18E2,7.001203E-2,1.8750632E-1,-2.3652226E-2,-2.3778039E-1,-5.341109E-2],"split_indices":[68,71,48,96,0,0,0,0,0],"split_type":[0,0,0,0,0,0,0,0,0],"sum_hessian":[9.712905E0,6.8148623E0,2.8980427E0,5.761953E0,1.0529093E0,1.4716101E0,1.4264327E0,4.3520746E0,1.4098784E0],"tree_param":{"num_deleted":"0","num_feature":"97","num_nodes":"9","size_leaf_vector":"1"}},{"base_weights":[-2.218989E-1,-2.0327203E-1,1.15790226E-1,-3.066736E-1,3.9067537E-1,8.928087E-3,-1.4938836E-1,5.6368876E-1,-2.6790047E-2,5.1977936E-2,2.15381E-1],"categories":[],"categories_nodes":[],"categories_segments":[],"categories_sizes":[],"default_left":[0,0,0,0,0,0,0,0,0,0,0],"id":33,"left_children":[1,-1,3,5,7,-1,-1,9,-1,-1,-1],"loss_changes":[1.5645843E0,0E0,8.631706E-1,2.1325856E-1,4.088874E-1,0E0,0E0,7.4974895E-2,0E0,0E0,0E0],"parents":[2147483647,0,0,2,2,3,3,4,4,7,7],"right_children":[2,-1,4,6,8,-1,-1,10,-1,-1,-1],"split_conditions":[6.455778E-4,-2.0327203E-1,6.1500614E-4,6.976744E-1,8.241759E-3,8.928087E-3,-1.4938836E-1,8.223684E-4,-2.6790047E-2,5.1977936E-2,2.15381E-1],"split_indices":[71,0,76,94,41,0,0,65,0,0,0],"split_type":[0,0,0,0,0,0,0,0,0,0,0],"sum_hessian":[8.657937E0,3.2567754E0,5.401162E0,2.0834773E0,3.317685E0,1.0612996E0,1.0221778E0,2.310444E0,1.0072408E0,1.2555864E0,1.0548576E0],"tree_param":{"num_deleted":"0","num_feature":"97","num_nodes":"11","size_leaf_vector":"1"}},{"base_weights":[-1.869147E-1,3.0696288E-1,-4.5422262E-1,-3.4661844E-2,1.9959246E-1,-6.4937395E-1,5.1225107E-2,-2.1900456E-1,-5.0371926E-2],"categories":[],"categories_nodes":[],"categories_segments":[],"categories_sizes":[],"default_left":[0,0,0,0,0,0,0,0,0],"id":34,"left_children":[1,3,5,-1,-1,7,-1,-1,-1],"loss_changes":[1.3085523E0,6.380638E-1,8.6085975E-1,0E0,0E0,6.744671E-2,0E0,0E0,0E0],"parents":[2147483647,0,0,1,1,2,2,5,5],"right_children":[2,4,6,-1,-1,8,-1,-1,-1],"split_conditions":[6.88E-1,1.0989011E-3,1.14613185E-2,-3.4661844E-2,1.9959246E-1,1.7699115E-3,5.1225107E-2,-2.1900456E-1,-5.0371926E-2],"split_indices":[94,66,77,0,0,77,0,0,0],"split_type":[0,0,0,0,0,0,0,0,0],"sum_hessian":[7.855825E0,2.7066584E0,5.1491666E0,1.5530868E0,1.1535717E0,3.8941522E0,1.2550144E0,2.8933196E0,1.0008324E0],"tree_param":{"num_deleted":"0","num_feature":"97","num_nodes":"9","size_leaf_vector":"1"}},{"base_weights":[-1.5496568E-1,-4.116813E-1,3.2708248E-1,-1.8753748E-1,5.222885E-3,-9.54894E-3,1.5714338E-1],"categories":[],"categories_nodes":[],"categories_segments":[],"categories_sizes":[],"default_left":[0,0,0,0,0,0,0],"id":35,"left_children":[1,3,5,-1,-1,-1,-1],"loss_changes":[1.1437526E0,5.38746E-1,2.5609526E-1,0E0,0E0,0E0,0E0],"parents":[2147483647,0,0,1,1,2,2],"right_children":[2,4,6,-1,-1,-1,-1],"split_conditions":[2.5316456E-4,9.0198434E-4,6.8E2,-1.8753748E-1,5.222885E-3,-9.54894E-3,1.5714338E-1],"split_indices":[84,82,96,0,0,0,0],"split_type":[0,0,0,0,0,0,0],"sum_hessian":[7.1543813E0,4.76353E0,2.3908515E0,2.8760376E0,1.8874921E0,1.1432711E0,1.2475804E0],"tree_param":{"num_deleted":"0","num_feature":"97","num_nodes":"7","size_leaf_vector":"1"}},{"base_weights":[-1.2353737E-1,3.2113704E-1,-3.4724045E-1,1.7205703E-1,-3.075523E-2,-1.8265098E-1,3.1590827E-2],"categories":[],"categories_nodes":[],"categories_segments":[],"categories_sizes":[],"default_left":[0,0,0,0,0,0,0],"id":36,"left_children":[1,3,5,-1,-1,-1,-1],"loss_changes":[8.781458E-1,3.901511E-1,7.2798806E-1,0E0,0E0,0E0,0E0],"parents":[2147483647,0,0,1,1,2,2],"right_children":[2,4,6,-1,-1,-1,-1],"split_conditions":[1.1827957E-2,7.1174377E-3,1.14613185E-2,1.7205703E-1,-3.075523E-2,-1.8265098E-1,3.1590827E-2],"split_indices":[26,4,77,0,0,0,0],"split_type":[0,0,0,0,0,0,0],"sum_hessian":[6.7067976E0,2.0989594E0,4.607838E0,1.0936687E0,1.0052907E0,2.7010868E0,1.9067513E0],"tree_param":{"num_deleted":"0","num_feature":"97","num_nodes":"7","size_leaf_vector":"1"}},{"base_weights":[-9.718469E-2,-3.5728532E-1,2.9549858E-1,5.205329E-2,-1.628339E-1,1.6412172E-1,-3.78178E-2],"categories":[],"categories_nodes":[],"categories_segments":[],"categories_sizes":[],"default_left":[0,0,0,0,0,0,0],"id":37,"left_children":[1,3,5,-1,-1,-1,-1],"loss_changes":[8.452004E-1,5.676503E-1,4.3300894E-1,0E0,0E0,0E0,0E0],"parents":[2147483647,0,0,1,1,2,2],"right_children":[2,4,6,-1,-1,-1,-1],"split_conditions":[2.8089888E-3,2.4752475E-3,3.5971224E-3,5.205329E-2,-1.628339E-1,1.6412172E-1,-3.78178E-2],"split_indices":[76,40,56,0,0,0,0],"split_type":[0,0,0,0,0,0,0],"sum_hessian":[6.2414684E0,3.808792E0,2.4326766E0,1.0030739E0,2.8057182E0,1.3370334E0,1.095643E0],"tree_param":{"num_deleted":"0","num_feature":"97","num_nodes":"7","size_leaf_vector":"1"}},{"base_weights":[-7.187456E-2,-3.1720018E-1,3.0519798E-1,-1.6669549E-1,2.7785318E-2,1.3929984E-1,3.3046412E-3],"categories":[],"categories_nodes":[],"categories_segments":[],"categories_sizes":[],"default_left":[0,0,0,0,0,0,0],"id":38,"left_children":[1,3,5,-1,-1,-1,-1],"loss_changes":[7.301388E-1,5.047127E-1,1.4507744E-1,0E0,0E0,0E0,0E0],"parents":[2147483647,0,0,1,1,2,2],"right_children":[2,4,6,-1,-1,-1,-1],"split_conditions":[1.0683761E-3,1.2903226E-2,7.29927E-3,-1.6669549E-1,2.7785318E-2,1.3929984E-1,3.3046412E-3],"split_indices":[68,77,32,0,0,0,0],"split_type":[0,0,0,0,0,0,0],"sum_hessian":[5.8463984E0,3.6381676E0,2.208231E0,2.07499E0,1.5631775E0,1.0576977E0,1.1505333E0],"tree_param":{"num_deleted":"0","num_feature":"97","num_nodes":"7","size_leaf_vector":"1"}},{"base_weights":[-5.503404E-2,2.5198242E-1,-3.1395373E-1,1.4001074E-1,-3.6932047E-2,3.9690513E-2,-1.5314409E-1],"categories":[],"categories_nodes":[],"categories_segments":[],"categories_sizes":[],"default_left":[0,0,0,0,0,0,0],"id":39,"left_children":[1,3,5,-1,-1,-1,-1],"loss_changes":[5.9796494E-1,3.4263808E-1,4.1712618E-1,0E0,0E0,0E0,0E0],"parents":[2147483647,0,0,1,1,2,2],"right_children":[2,4,6,-1,-1,-1,-1],"split_conditions":[1.4814815E-2,8.56531E-3,2.5641026E-2,1.4001074E-1,-3.6932047E-2,3.9690513E-2,-1.5314409E-1],"split_indices":[26,4,11,0,0,0,0],"split_type":[0,0,0,0,0,0,0],"sum_hessian":[5.527074E0,2.5409324E0,2.9861414E0,1.4605793E0,1.0803531E0,1.0129108E0,1.9732306E0],"tree_param":{"num_deleted":"0","num_feature":"97","num_nodes":"7","size_leaf_vector":"1"}},{"base_weights":[-4.3461516E-2,-3.5616964E-1,2.2138846E-1,1.2708427E-2,-1.6576333E-1,-3.535281E-2,1.15718514E-1],"categories":[],"categories_nodes":[],"categories_segments":[],"categories_sizes":[],"default_left":[0,0,0,0,0,0,0],"id":40,"left_children":[1,3,5,-1,-1,-1,-1],"loss_changes":[5.9587455E-1,2.7744415E-1,2.6826596E-1,0E0,0E0,0E0,0E0],"parents":[2147483647,0,0,1,1,2,2],"right_children":[2,4,6,-1,-1,-1,-1],"split_conditions":[6.1500614E-4,2.232143E-2,5.3619305E-3,1.2708427E-2,-1.6576333E-1,-3.535281E-2,1.15718514E-1],"split_indices":[76,5,52,0,0,0,0],"split_type":[0,0,0,0,0,0,0],"sum_hessian":[5.242672E0,2.2460113E0,2.996661E0,1.0002815E0,1.2457298E0,1.0702921E0,1.9263688E0],"tree_param":{"num_deleted":"0","num_feature":"97","num_nodes":"7","size_leaf_vector":"1"}},{"base_weights":[-4.586006E-2,-2.2689705E-1,1.0223336E-1,5.0987456E-2,-4.040471E-1,-1.6554946E-1,-4.8039705E-3],"categories":[],"categories_nodes":[],"categories_segments":[],"categories_sizes":[],"default_left":[0,0,0,0,0,0,0],"id":41,"left_children":[1,3,-1,-1,5,-1,-1],"loss_changes":[4.9590573E-1,3.9721906E-1,0E0,0E0,1.9342762E-1,0E0,0E0],"parents":[2147483647,0,0,1,1,4,4],"right_children":[2,4,-1,-1,6,-1,-1],"split_conditions":[6.2539085E-4,1.16959065E-2,1.0223336E-1,5.0987456E-2,1.6064256E-2,-1.6554946E-1,-4.8039705E-3],"split_indices":[83,26,0,0,71,0,0],"split_type":[0,0,0,0,0,0,0],"sum_hessian":[4.980137E0,3.6733181E0,1.3068186E0,1.1461923E0,2.5271258E0,1.5244215E0,1.0027044E0],"tree_param":{"num_deleted":"0","num_feature":"97","num_nodes":"7","size_leaf_vector":"1"}},{"base_weights":[-3.9123945E-2,-1.2221448E-1,1.4031945E-1,-5.5218644E-2,3.0487335E-1,1.3224149E-1,6.1299703E-3],"categories":[],"categories_nodes":[],"categories_segments":[],"categories_sizes":[],"default_left":[0,0,0,0,0,0,0],"id":42,"left_children":[1,-1,3,-1,5,-1,-1],"loss_changes":[4.339232E-1,0E0,3.0044305E-1,0E0,1.2296334E-1,0E0,0E0],"parents":[2147483647,0,0,2,2,4,4],"right_children":[2,-1,4,-1,6,-1,-1],"split_conditions":[6.455778E-4,-1.2221448E-1,6.1500614E-4,-5.5218644E-2,4.784689E-3,1.3224149E-1,6.1299703E-3],"split_indices":[71,0,76,0,50,0,0],"split_type":[0,0,0,0,0,0,0],"sum_hessian":[4.7014475E0,1.1241634E0,3.5772839E0,1.1640549E0,2.413229E0,1.2609183E0,1.1523107E0],"tree_param":{"num_deleted":"0","num_feature":"97","num_nodes":"7","size_leaf_vector":"1"}},{"base_weights":[-3.56828E-2,-1.9375902E-1,8.9156084E-2,-3.5948864E-1,5.2377164E-2,-1.7054276E-1,1.6284768E-2],"categories":[],"categories_nodes":[],"categories_segments":[],"categories_sizes":[],"default_left":[0,0,0,0,0,0,0],"id":43,"left_children":[1,3,-1,5,-1,-1,-1],"loss_changes":[3.4779394E-1,3.280003E-1,0E0,3.182507E-1,0E0,0E0,0E0],"parents":[2147483647,0,0,1,1,3,3],"right_children":[2,4,-1,6,-1,-1,-1],"split_conditions":[6.2539085E-4,8.58E2,8.9156084E-2,1.724138E-2,5.2377164E-2,-1.7054276E-1,1.6284768E-2],"split_indices":[83,96,0,77,0,0,0],"split_type":[0,0,0,0,0,0,0],"sum_hessian":[4.5153546E0,3.3448398E0,1.1705147E0,2.3234966E0,1.0213431E0,1.2953521E0,1.0281446E0],"tree_param":{"num_deleted":"0","num_feature":"97","num_nodes":"7","size_leaf_vector":"1"}},{"base_weights":[-3.149241E-2,2.0384935E-1,-2.4427876E-1,1.0728061E-1,-1.4413183E-2,-1.321485E-1,1.370824E-2],"categories":[],"categories_nodes":[],"categories_segments":[],"categories_sizes":[],"default_left":[0,0,0,0,0,0,0],"id":44,"left_children":[1,3,5,-1,-1,-1,-1],"loss_changes":[3.131877E-1,1.3501759E-1,2.031725E-1,0E0,0E0,0E0,0E0],"parents":[2147483647,0,0,1,1,2,2],"right_children":[2,4,6,-1,-1,-1,-1],"split_conditions":[7.0430106E-1,1.3157895E-2,4.241782E-3,1.0728061E-1,-1.4413183E-2,-1.321485E-1,1.370824E-2],"split_indices":[94,26,77,0,0,0,0],"split_type":[0,0,0,0,0,0,0],"sum_hessian":[4.259679E0,2.0425823E0,2.2170966E0,1.0077852E0,1.0347971E0,1.0127248E0,1.2043719E0],"tree_param":{"num_deleted":"0","num_feature":"97","num_nodes":"7","size_leaf_vector":"1"}},{"base_weights":[-2.8704628E-2,-2.1953008E-1,6.663014E-2,-1.2215644E-1,2.8919362E-2],"categories":[],"categories_nodes":[],"categories_segments":[],"categories_sizes":[],"default_left":[0,0,0,0,0],"id":45,"left_children":[1,3,-1,-1,-1],"loss_changes":[2.9328993E-1,2.4109451E-1,0E0,0E0,0E0],"parents":[2147483647,0,0,1,1],"right_children":[2,4,-1,-1,-1],"split_conditions":[3.021148E-3,1.2004802E-3,6.663014E-2,-1.2215644E-1,2.8919362E-2],"split_indices":[76,82,0,0,0],"split_type":[0,0,0,0,0],"sum_hessian":[4.109324E0,2.4045312E0,1.704793E0,1.3272777E0,1.0772535E0],"tree_param":{"num_deleted":"0","num_feature":"97","num_nodes":"5","size_leaf_vector":"1"}},{"base_weights":[-2.7026188E-2,-1.8838882E-1,7.433529E-2,-1.2005394E-1,3.7915256E-2],"categories":[],"categories_nodes":[],"categories_segments":[],"categories_sizes":[],"default_left":[0,0,0,0,0],"id":46,"left_children":[1,3,-1,-1,-1],"loss_changes":[2.677948E-1,2.978893E-1,0E0,0E0,0E0],"parents":[2147483647,0,0,1,1],"right_children":[2,4,-1,-1,-1],"split_conditions":[8.42E2,1.5873017E-2,7.433529E-2,-1.2005394E-1,3.7915256E-2],"split_indices":[96,77,0,0,0],"split_type":[0,0,0,0,0],"sum_hessian":[3.9863408E0,2.7097266E0,1.2766142E0,1.4576426E0,1.252084E0],"tree_param":{"num_deleted":"0","num_feature":"97","num_nodes":"5","size_leaf_vector":"1"}},{"base_weights":[-2.2192689E-2,-1.9936964E-1,6.3687325E-2,3.0721834E-2,-1.15368135E-1],"categories":[],"categories_nodes":[],"categories_segments":[],"categories_sizes":[],"default_left":[0,0,0,0,0],"id":47,"left_children":[1,3,-1,-1,-1],"loss_changes":[2.4385934E-1,2.2262287E-1,0E0,0E0,0E0],"parents":[2147483647,0,0,1,1],"right_children":[2,4,-1,-1,-1],"split_conditions":[2.5316456E-4,6.849315E-3,6.3687325E-2,3.0721834E-2,-1.15368135E-1],"split_indices":[84,3,0,0,0],"split_type":[0,0,0,0,0],"sum_hessian":[3.8509905E0,2.2788398E0,1.5721506E0,1.0366315E0,1.2422084E0],"tree_param":{"num_deleted":"0","num_feature":"97","num_nodes":"5","size_leaf_vector":"1"}},{"base_weights":[-2.1202331E-2,-1.6082132E-1,7.519872E-2,-9.6578024E-2,3.3609655E-2],"categories":[],"categories_nodes":[],"categories_segments":[],"categories_sizes":[],"default_left":[0,0,0,0,0],"id":48,"left_children":[1,3,-1,-1,-1],"loss_changes":[2.2038847E-1,2.0062837E-1,0E0,0E0,0E0],"parents":[2147483647,0,0,1,1],"right_children":[2,4,-1,-1,-1],"split_conditions":[6.2539085E-4,1.3280213E-3,7.519872E-2,-9.6578024E-2,3.3609655E-2],"split_indices":[83,65,0,0,0],"split_type":[0,0,0,0,0],"sum_hessian":[3.7441669E0,2.7436087E0,1.0005581E0,1.6119728E0,1.1316359E0],"tree_param":{"num_deleted":"0","num_feature":"97","num_nodes":"5","size_leaf_vector":"1"}},{"base_weights":[-1.3004641E-2,6.8430446E-2,-1.6603918E-1,-1.03404105E-1,3.2575496E-2],"categories":[],"categories_nodes":[],"categories_segments":[],"categories_sizes":[],"default_left":[0,0,0,0,0],"id":49,"left_children":[1,-1,3,-1,-1],"loss_changes":[2.0897469E-1,0E0,2.0498481E-1,0E0,0E0],"parents":[2147483647,0,0,2,2],"right_children":[2,-1,4,-1,-1],"split_conditions":[1.9950125E-2,6.8430446E-2,2.994012E-3,-1.03404105E-1,3.2575496E-2],"split_indices":[17,0,76,0,0],"split_type":[0,0,0,0,0],"sum_hessian":[3.6371877E0,1.2217679E0,2.4154198E0,1.3088945E0,1.1065253E0],"tree_param":{"num_deleted":"0","num_feature":"97","num_nodes":"5","size_leaf_vector":"1"}}]},"name":"gbtree"},"learner_model_param":{"base_score":"1.2343189E-1","boost_from_average":"1","num_class":"0","num_feature":"97","num_target":"1"},"objective":{"name":"binary:logistic","reg_loss_param":{"scale_pos_weight":"1"}}},"version":[2,1,1]}